## LambdaMART
## No. of trees = 1000
## No. of leaves = 10
## No. of threshold candidates = 256
## Learning rate = 0.1
## Stop early = 100

<ensemble>
	<tree id="1" weight="0.1">
		<split>
			<feature> 130 </feature>
			<threshold> 0.625 </threshold>
			<split pos="left">
				<feature> 130 </feature>
				<threshold> 0.0859375 </threshold>
				<split pos="left">
					<feature> 140 </feature>
					<threshold> 0.3937503 </threshold>
					<split pos="left">
						<feature> 154 </feature>
						<threshold> 0.12694366 </threshold>
						<split pos="left">
							<feature> 148 </feature>
							<threshold> 7.0 </threshold>
							<split pos="left">
								<output> 1.583063006401062 </output>
							</split>
							<split pos="right">
								<output> 1.9455549716949463 </output>
							</split>
						</split>
						<split pos="right">
							<output> -0.2210346907377243 </output>
						</split>
					</split>
					<split pos="right">
						<output> -0.7902467846870422 </output>
					</split>
				</split>
				<split pos="right">
					<output> 1.6252769231796265 </output>
				</split>
			</split>
			<split pos="right">
				<feature> 118 </feature>
				<threshold> 0.87109375 </threshold>
				<split pos="left">
					<feature> 150 </feature>
					<threshold> 0.2 </threshold>
					<split pos="left">
						<feature> 61 </feature>
						<threshold> 0.95703125 </threshold>
						<split pos="left">
							<feature> 7 </feature>
							<threshold> 1.05734416E8 </threshold>
							<split pos="left">
								<output> 1.9176157712936401 </output>
							</split>
							<split pos="right">
								<output> 2.0 </output>
							</split>
						</split>
						<split pos="right">
							<output> 2.0 </output>
						</split>
					</split>
					<split pos="right">
						<output> 1.9301444292068481 </output>
					</split>
				</split>
				<split pos="right">
					<output> 2.0 </output>
				</split>
			</split>
		</split>
	</tree>
	<tree id="2" weight="0.1">
		<split>
			<feature> 130 </feature>
			<threshold> 0.625 </threshold>
			<split pos="left">
				<feature> 130 </feature>
				<threshold> 0.0859375 </threshold>
				<split pos="left">
					<output> -1.364558219909668 </output>
				</split>
				<split pos="right">
					<output> 1.5826348066329956 </output>
				</split>
			</split>
			<split pos="right">
				<feature> 148 </feature>
				<threshold> 5.0 </threshold>
				<split pos="left">
					<feature> 148 </feature>
					<threshold> 4.0 </threshold>
					<split pos="left">
						<output> 1.701877236366272 </output>
					</split>
					<split pos="right">
						<output> 1.7111468315124512 </output>
					</split>
				</split>
				<split pos="right">
					<feature> 59 </feature>
					<threshold> 0.24801955 </threshold>
					<split pos="left">
						<feature> 154 </feature>
						<threshold> 1.2976458 </threshold>
						<split pos="left">
							<feature> 133 </feature>
							<threshold> 0.0546875 </threshold>
							<split pos="left">
								<output> 1.680220365524292 </output>
							</split>
							<split pos="right">
								<output> 1.7538940906524658 </output>
							</split>
						</split>
						<split pos="right">
							<output> 1.5593332052230835 </output>
						</split>
					</split>
					<split pos="right">
						<feature> 151 </feature>
						<threshold> 0.5763444 </threshold>
						<split pos="left">
							<feature> 77 </feature>
							<threshold> 0.81640625 </threshold>
							<split pos="left">
								<output> 1.7615396976470947 </output>
							</split>
							<split pos="right">
								<output> 1.751786231994629 </output>
							</split>
						</split>
						<split pos="right">
							<output> 1.7623062133789062 </output>
						</split>
					</split>
				</split>
			</split>
		</split>
	</tree>
	<tree id="3" weight="0.1">
		<split>
			<feature> 130 </feature>
			<threshold> 0.625 </threshold>
			<split pos="left">
				<feature> 130 </feature>
				<threshold> 0.0859375 </threshold>
				<split pos="left">
					<output> -1.19991135597229 </output>
				</split>
				<split pos="right">
					<output> 1.3724908828735352 </output>
				</split>
			</split>
			<split pos="right">
				<feature> 148 </feature>
				<threshold> 5.0 </threshold>
				<split pos="left">
					<feature> 148 </feature>
					<threshold> 4.0 </threshold>
					<split pos="left">
						<output> 1.4984300136566162 </output>
					</split>
					<split pos="right">
						<output> 1.5068929195404053 </output>
					</split>
				</split>
				<split pos="right">
					<feature> 59 </feature>
					<threshold> 0.24801955 </threshold>
					<split pos="left">
						<feature> 133 </feature>
						<threshold> 0.0546875 </threshold>
						<split pos="left">
							<output> 1.4593348503112793 </output>
						</split>
						<split pos="right">
							<feature> 155 </feature>
							<threshold> 0.04296875 </threshold>
							<split pos="left">
								<output> 1.5490201711654663 </output>
							</split>
							<split pos="right">
								<output> 1.4578837156295776 </output>
							</split>
						</split>
					</split>
					<split pos="right">
						<feature> 152 </feature>
						<threshold> 0.52639455 </threshold>
						<split pos="left">
							<feature> 150 </feature>
							<threshold> 0.2 </threshold>
							<split pos="left">
								<output> 1.5217784643173218 </output>
							</split>
							<split pos="right">
								<output> 1.5545520782470703 </output>
							</split>
						</split>
						<split pos="right">
							<output> 1.558149814605713 </output>
						</split>
					</split>
				</split>
			</split>
		</split>
	</tree>
	<tree id="4" weight="0.1">
		<split>
			<feature> 130 </feature>
			<threshold> 0.625 </threshold>
			<split pos="left">
				<feature> 130 </feature>
				<threshold> 0.08203125 </threshold>
				<split pos="left">
					<output> -1.0734117031097412 </output>
				</split>
				<split pos="right">
					<output> 1.2277263402938843 </output>
				</split>
			</split>
			<split pos="right">
				<feature> 148 </feature>
				<threshold> 5.0 </threshold>
				<split pos="left">
					<feature> 148 </feature>
					<threshold> 4.0 </threshold>
					<split pos="left">
						<output> 1.3610693216323853 </output>
					</split>
					<split pos="right">
						<output> 1.3694885969161987 </output>
					</split>
				</split>
				<split pos="right">
					<feature> 59 </feature>
					<threshold> 0.24801955 </threshold>
					<split pos="left">
						<feature> 133 </feature>
						<threshold> 0.05859375 </threshold>
						<split pos="left">
							<output> 1.3233367204666138 </output>
						</split>
						<split pos="right">
							<feature> 155 </feature>
							<threshold> 0.04296875 </threshold>
							<split pos="left">
								<output> 1.4150772094726562 </output>
							</split>
							<split pos="right">
								<output> 1.2976882457733154 </output>
							</split>
						</split>
					</split>
					<split pos="right">
						<feature> 151 </feature>
						<threshold> 0.5609752 </threshold>
						<split pos="left">
							<feature> 150 </feature>
							<threshold> 0.2 </threshold>
							<split pos="left">
								<output> 1.3832502365112305 </output>
							</split>
							<split pos="right">
								<output> 1.4202837944030762 </output>
							</split>
						</split>
						<split pos="right">
							<output> 1.424180030822754 </output>
						</split>
					</split>
				</split>
			</split>
		</split>
	</tree>
	<tree id="5" weight="0.1">
		<split>
			<feature> 130 </feature>
			<threshold> 0.625 </threshold>
			<split pos="left">
				<feature> 130 </feature>
				<threshold> 0.08203125 </threshold>
				<split pos="left">
					<output> -0.9736681580543518 </output>
				</split>
				<split pos="right">
					<output> 1.1171013116836548 </output>
				</split>
			</split>
			<split pos="right">
				<feature> 148 </feature>
				<threshold> 5.0 </threshold>
				<split pos="left">
					<feature> 148 </feature>
					<threshold> 4.0 </threshold>
					<split pos="left">
						<output> 1.2617956399917603 </output>
					</split>
					<split pos="right">
						<output> 1.2706290483474731 </output>
					</split>
				</split>
				<split pos="right">
					<feature> 59 </feature>
					<threshold> 0.24801955 </threshold>
					<split pos="left">
						<feature> 133 </feature>
						<threshold> 0.05859375 </threshold>
						<split pos="left">
							<output> 1.2195897102355957 </output>
						</split>
						<split pos="right">
							<feature> 155 </feature>
							<threshold> 0.04296875 </threshold>
							<split pos="left">
								<output> 1.3205738067626953 </output>
							</split>
							<split pos="right">
								<output> 1.1954952478408813 </output>
							</split>
						</split>
					</split>
					<split pos="right">
						<feature> 151 </feature>
						<threshold> 0.5532906 </threshold>
						<split pos="left">
							<feature> 150 </feature>
							<threshold> 0.2 </threshold>
							<split pos="left">
								<output> 1.286027193069458 </output>
							</split>
							<split pos="right">
								<output> 1.3266347646713257 </output>
							</split>
						</split>
						<split pos="right">
							<output> 1.3310545682907104 </output>
						</split>
					</split>
				</split>
			</split>
		</split>
	</tree>
	<tree id="6" weight="0.1">
		<split>
			<feature> 130 </feature>
			<threshold> 0.625 </threshold>
			<split pos="left">
				<feature> 140 </feature>
				<threshold> 0.4101566 </threshold>
				<split pos="left">
					<feature> 154 </feature>
					<threshold> 2.9197028 </threshold>
					<split pos="left">
						<feature> 45 </feature>
						<threshold> 0.51111114 </threshold>
						<split pos="left">
							<output> 1.0951762199401855 </output>
						</split>
						<split pos="right">
							<output> 1.5034281015396118 </output>
						</split>
					</split>
					<split pos="right">
						<output> 1.930724024772644 </output>
					</split>
				</split>
				<split pos="right">
					<output> -0.9108781814575195 </output>
				</split>
			</split>
			<split pos="right">
				<feature> 148 </feature>
				<threshold> 5.0 </threshold>
				<split pos="left">
					<feature> 148 </feature>
					<threshold> 4.0 </threshold>
					<split pos="left">
						<output> 1.185964584350586 </output>
					</split>
					<split pos="right">
						<output> 1.1955024003982544 </output>
					</split>
				</split>
				<split pos="right">
					<feature> 59 </feature>
					<threshold> 0.24801955 </threshold>
					<split pos="left">
						<feature> 133 </feature>
						<threshold> 0.05859375 </threshold>
						<split pos="left">
							<output> 1.1383781433105469 </output>
						</split>
						<split pos="right">
							<output> 1.2354086637496948 </output>
						</split>
					</split>
					<split pos="right">
						<feature> 150 </feature>
						<threshold> 0.2 </threshold>
						<split pos="left">
							<output> 1.2072876691818237 </output>
						</split>
						<split pos="right">
							<output> 1.2590854167938232 </output>
						</split>
					</split>
				</split>
			</split>
		</split>
	</tree>
	<tree id="7" weight="0.1">
		<split>
			<feature> 130 </feature>
			<threshold> 0.625 </threshold>
			<split pos="left">
				<feature> 140 </feature>
				<threshold> 0.4101566 </threshold>
				<split pos="left">
					<feature> 123 </feature>
					<threshold> 0.6135935 </threshold>
					<split pos="left">
						<feature> 154 </feature>
						<threshold> 2.9197028 </threshold>
						<split pos="left">
							<feature> 45 </feature>
							<threshold> 0.51111114 </threshold>
							<split pos="left">
								<output> 0.9854003190994263 </output>
							</split>
							<split pos="right">
								<output> 1.3891627788543701 </output>
							</split>
						</split>
						<split pos="right">
							<output> 1.6966325044631958 </output>
						</split>
					</split>
					<split pos="right">
						<output> 1.8165637254714966 </output>
					</split>
				</split>
				<split pos="right">
					<output> -0.8798826932907104 </output>
				</split>
			</split>
			<split pos="right">
				<feature> 148 </feature>
				<threshold> 5.0 </threshold>
				<split pos="left">
					<feature> 148 </feature>
					<threshold> 4.0 </threshold>
					<split pos="left">
						<output> 1.1247879266738892 </output>
					</split>
					<split pos="right">
						<output> 1.1349873542785645 </output>
					</split>
				</split>
				<split pos="right">
					<feature> 59 </feature>
					<threshold> 0.24801955 </threshold>
					<split pos="left">
						<feature> 133 </feature>
						<threshold> 0.05859375 </threshold>
						<split pos="left">
							<output> 1.0759496688842773 </output>
						</split>
						<split pos="right">
							<output> 1.1743098497390747 </output>
						</split>
					</split>
					<split pos="right">
						<output> 1.2010324001312256 </output>
					</split>
				</split>
			</split>
		</split>
	</tree>
	<tree id="8" weight="0.1">
		<split>
			<feature> 130 </feature>
			<threshold> 0.625 </threshold>
			<split pos="left">
				<feature> 140 </feature>
				<threshold> 0.4101566 </threshold>
				<split pos="left">
					<feature> 121 </feature>
					<threshold> 0.6135935 </threshold>
					<split pos="left">
						<feature> 45 </feature>
						<threshold> 0.51111114 </threshold>
						<split pos="left">
							<output> 0.9023315906524658 </output>
						</split>
						<split pos="right">
							<output> 1.2848725318908691 </output>
						</split>
					</split>
					<split pos="right">
						<output> 1.6231333017349243 </output>
					</split>
				</split>
				<split pos="right">
					<output> -0.8064427971839905 </output>
				</split>
			</split>
			<split pos="right">
				<feature> 148 </feature>
				<threshold> 5.0 </threshold>
				<split pos="left">
					<feature> 148 </feature>
					<threshold> 4.0 </threshold>
					<split pos="left">
						<output> 1.0722241401672363 </output>
					</split>
					<split pos="right">
						<output> 1.0836135149002075 </output>
					</split>
				</split>
				<split pos="right">
					<feature> 59 </feature>
					<threshold> 0.24801955 </threshold>
					<split pos="left">
						<feature> 133 </feature>
						<threshold> 0.05859375 </threshold>
						<split pos="left">
							<output> 1.0174905061721802 </output>
						</split>
						<split pos="right">
							<output> 1.1290342807769775 </output>
						</split>
					</split>
					<split pos="right">
						<feature> 150 </feature>
						<threshold> 0.2 </threshold>
						<split pos="left">
							<output> 1.0988260507583618 </output>
						</split>
						<split pos="right">
							<output> 1.167555570602417 </output>
						</split>
					</split>
				</split>
			</split>
		</split>
	</tree>
	<tree id="9" weight="0.1">
		<split>
			<feature> 130 </feature>
			<threshold> 0.625 </threshold>
			<split pos="left">
				<feature> 140 </feature>
				<threshold> 0.4101566 </threshold>
				<split pos="left">
					<feature> 121 </feature>
					<threshold> 0.6135935 </threshold>
					<split pos="left">
						<feature> 45 </feature>
						<threshold> 0.51111114 </threshold>
						<split pos="left">
							<output> 0.7980518937110901 </output>
						</split>
						<split pos="right">
							<feature> 150 </feature>
							<threshold> 0.11111111 </threshold>
							<split pos="left">
								<output> 1.1453543901443481 </output>
							</split>
							<split pos="right">
								<output> 1.198217511177063 </output>
							</split>
						</split>
					</split>
					<split pos="right">
						<output> 1.488256573677063 </output>
					</split>
				</split>
				<split pos="right">
					<output> -0.7406140565872192 </output>
				</split>
			</split>
			<split pos="right">
				<feature> 148 </feature>
				<threshold> 5.0 </threshold>
				<split pos="left">
					<feature> 148 </feature>
					<threshold> 4.0 </threshold>
					<split pos="left">
						<output> 1.0266934633255005 </output>
					</split>
					<split pos="right">
						<output> 1.0394617319107056 </output>
					</split>
				</split>
				<split pos="right">
					<feature> 59 </feature>
					<threshold> 0.24801955 </threshold>
					<split pos="left">
						<feature> 133 </feature>
						<threshold> 0.05859375 </threshold>
						<split pos="left">
							<output> 0.969390869140625 </output>
						</split>
						<split pos="right">
							<output> 1.0970407724380493 </output>
						</split>
					</split>
					<split pos="right">
						<output> 1.127376914024353 </output>
					</split>
				</split>
			</split>
		</split>
	</tree>
	<tree id="10" weight="0.1">
		<split>
			<feature> 130 </feature>
			<threshold> 0.6015625 </threshold>
			<split pos="left">
				<feature> 130 </feature>
				<threshold> 0.08203125 </threshold>
				<split pos="left">
					<feature> 140 </feature>
					<threshold> 0.4101566 </threshold>
					<split pos="left">
						<feature> 121 </feature>
						<threshold> 0.6135935 </threshold>
						<split pos="left">
							<feature> 154 </feature>
							<threshold> 2.9197028 </threshold>
							<split pos="left">
								<output> 1.0752503871917725 </output>
							</split>
							<split pos="right">
								<output> 1.3799359798431396 </output>
							</split>
						</split>
						<split pos="right">
							<output> 1.3901925086975098 </output>
						</split>
					</split>
					<split pos="right">
						<output> -0.9273840188980103 </output>
					</split>
				</split>
				<split pos="right">
					<feature> 148 </feature>
					<threshold> 10.0 </threshold>
					<split pos="left">
						<output> 0.8864185810089111 </output>
					</split>
					<split pos="right">
						<output> 1.169203758239746 </output>
					</split>
				</split>
			</split>
			<split pos="right">
				<feature> 148 </feature>
				<threshold> 5.0 </threshold>
				<split pos="left">
					<output> 1.0073844194412231 </output>
				</split>
				<split pos="right">
					<feature> 59 </feature>
					<threshold> 0.24801955 </threshold>
					<split pos="left">
						<feature> 133 </feature>
						<threshold> 0.05859375 </threshold>
						<split pos="left">
							<output> 0.9165561199188232 </output>
						</split>
						<split pos="right">
							<output> 1.060760259628296 </output>
						</split>
					</split>
					<split pos="right">
						<output> 1.1012060642242432 </output>
					</split>
				</split>
			</split>
		</split>
	</tree>
	<tree id="11" weight="0.1">
		<split>
			<feature> 130 </feature>
			<threshold> 0.6015625 </threshold>
			<split pos="left">
				<feature> 130 </feature>
				<threshold> 0.08203125 </threshold>
				<split pos="left">
					<feature> 140 </feature>
					<threshold> 0.4101566 </threshold>
					<split pos="left">
						<feature> 121 </feature>
						<threshold> 0.6135935 </threshold>
						<split pos="left">
							<feature> 154 </feature>
							<threshold> 2.9197028 </threshold>
							<split pos="left">
								<output> 0.9691578149795532 </output>
							</split>
							<split pos="right">
								<output> 1.2961615324020386 </output>
							</split>
						</split>
						<split pos="right">
							<output> 1.308859944343567 </output>
						</split>
					</split>
					<split pos="right">
						<output> -0.8642367124557495 </output>
					</split>
				</split>
				<split pos="right">
					<feature> 148 </feature>
					<threshold> 10.0 </threshold>
					<split pos="left">
						<output> 0.8138459324836731 </output>
					</split>
					<split pos="right">
						<output> 1.1295075416564941 </output>
					</split>
				</split>
			</split>
			<split pos="right">
				<feature> 148 </feature>
				<threshold> 5.0 </threshold>
				<split pos="left">
					<output> 0.9578924179077148 </output>
				</split>
				<split pos="right">
					<feature> 68 </feature>
					<threshold> 0.3125 </threshold>
					<split pos="left">
						<feature> 120 </feature>
						<threshold> 0.83984375 </threshold>
						<split pos="left">
							<output> 0.9181139469146729 </output>
						</split>
						<split pos="right">
							<output> 1.0906903743743896 </output>
						</split>
					</split>
					<split pos="right">
						<output> 1.0763607025146484 </output>
					</split>
				</split>
			</split>
		</split>
	</tree>
	<tree id="12" weight="0.1">
		<split>
			<feature> 130 </feature>
			<threshold> 0.6015625 </threshold>
			<split pos="left">
				<feature> 130 </feature>
				<threshold> 0.08203125 </threshold>
				<split pos="left">
					<feature> 140 </feature>
					<threshold> 0.39785188 </threshold>
					<split pos="left">
						<feature> 121 </feature>
						<threshold> 0.6135935 </threshold>
						<split pos="left">
							<feature> 154 </feature>
							<threshold> 2.9197028 </threshold>
							<split pos="left">
								<output> 0.8826764822006226 </output>
							</split>
							<split pos="right">
								<output> 1.2324830293655396 </output>
							</split>
						</split>
						<split pos="right">
							<output> 1.2488422393798828 </output>
						</split>
					</split>
					<split pos="right">
						<output> -0.7960914373397827 </output>
					</split>
				</split>
				<split pos="right">
					<feature> 148 </feature>
					<threshold> 10.0 </threshold>
					<split pos="left">
						<output> 0.7323119640350342 </output>
					</split>
					<split pos="right">
						<output> 1.0946186780929565 </output>
					</split>
				</split>
			</split>
			<split pos="right">
				<feature> 148 </feature>
				<threshold> 5.0 </threshold>
				<split pos="left">
					<output> 0.91764235496521 </output>
				</split>
				<split pos="right">
					<feature> 68 </feature>
					<threshold> 0.3203125 </threshold>
					<split pos="left">
						<feature> 120 </feature>
						<threshold> 0.83984375 </threshold>
						<split pos="left">
							<output> 0.8635085225105286 </output>
						</split>
						<split pos="right">
							<output> 1.0722383260726929 </output>
						</split>
					</split>
					<split pos="right">
						<output> 1.056605577468872 </output>
					</split>
				</split>
			</split>
		</split>
	</tree>
	<tree id="13" weight="0.1">
		<split>
			<feature> 130 </feature>
			<threshold> 0.6015625 </threshold>
			<split pos="left">
				<feature> 130 </feature>
				<threshold> 0.08203125 </threshold>
				<split pos="left">
					<feature> 140 </feature>
					<threshold> 0.40605503 </threshold>
					<split pos="left">
						<feature> 121 </feature>
						<threshold> 0.6135935 </threshold>
						<split pos="left">
							<feature> 154 </feature>
							<threshold> 2.9197028 </threshold>
							<split pos="left">
								<output> 0.7985126972198486 </output>
							</split>
							<split pos="right">
								<output> 1.1829434633255005 </output>
							</split>
						</split>
						<split pos="right">
							<output> 1.2023601531982422 </output>
						</split>
					</split>
					<split pos="right">
						<output> -0.7476179599761963 </output>
					</split>
				</split>
				<split pos="right">
					<feature> 148 </feature>
					<threshold> 10.0 </threshold>
					<split pos="left">
						<output> 0.663869321346283 </output>
					</split>
					<split pos="right">
						<output> 1.068542718887329 </output>
					</split>
				</split>
			</split>
			<split pos="right">
				<feature> 148 </feature>
				<threshold> 5.0 </threshold>
				<split pos="left">
					<output> 0.87823086977005 </output>
				</split>
				<split pos="right">
					<feature> 68 </feature>
					<threshold> 0.3125 </threshold>
					<split pos="left">
						<feature> 120 </feature>
						<threshold> 0.83984375 </threshold>
						<split pos="left">
							<output> 0.8172129988670349 </output>
						</split>
						<split pos="right">
							<output> 1.0583921670913696 </output>
						</split>
					</split>
					<split pos="right">
						<output> 1.0392487049102783 </output>
					</split>
				</split>
			</split>
		</split>
	</tree>
	<tree id="14" weight="0.1">
		<split>
			<feature> 130 </feature>
			<threshold> 0.6015625 </threshold>
			<split pos="left">
				<feature> 132 </feature>
				<threshold> 0.5078125 </threshold>
				<split pos="left">
					<feature> 140 </feature>
					<threshold> 0.4101566 </threshold>
					<split pos="left">
						<feature> 121 </feature>
						<threshold> 0.6135935 </threshold>
						<split pos="left">
							<feature> 154 </feature>
							<threshold> 2.9197028 </threshold>
							<split pos="left">
								<feature> 45 </feature>
								<threshold> 0.51111114 </threshold>
								<split pos="left">
									<output> 0.14870375394821167 </output>
								</split>
								<split pos="right">
									<output> 0.9386501312255859 </output>
								</split>
							</split>
							<split pos="right">
								<output> 1.1430984735488892 </output>
							</split>
						</split>
						<split pos="right">
							<output> 1.1659841537475586 </output>
						</split>
					</split>
					<split pos="right">
						<output> -0.5937138795852661 </output>
					</split>
				</split>
				<split pos="right">
					<output> 0.8900560736656189 </output>
				</split>
			</split>
			<split pos="right">
				<feature> 148 </feature>
				<threshold> 5.0 </threshold>
				<split pos="left">
					<output> 0.8385189175605774 </output>
				</split>
				<split pos="right">
					<feature> 68 </feature>
					<threshold> 0.3125 </threshold>
					<split pos="left">
						<feature> 120 </feature>
						<threshold> 0.83984375 </threshold>
						<split pos="left">
							<output> 0.770159900188446 </output>
						</split>
						<split pos="right">
							<output> 1.045287847518921 </output>
						</split>
					</split>
					<split pos="right">
						<output> 1.0239825248718262 </output>
					</split>
				</split>
			</split>
		</split>
	</tree>
	<tree id="15" weight="0.1">
		<split>
			<feature> 132 </feature>
			<threshold> 0.5078125 </threshold>
			<split pos="left">
				<feature> 140 </feature>
				<threshold> 0.4101566 </threshold>
				<split pos="left">
					<feature> 121 </feature>
					<threshold> 0.6135935 </threshold>
					<split pos="left">
						<feature> 154 </feature>
						<threshold> 2.9197028 </threshold>
						<split pos="left">
							<feature> 44 </feature>
							<threshold> 0.33333334 </threshold>
							<split pos="left">
								<output> -0.4413497745990753 </output>
							</split>
							<split pos="right">
								<output> 0.8859333992004395 </output>
							</split>
						</split>
						<split pos="right">
							<output> 1.1090552806854248 </output>
						</split>
					</split>
					<split pos="right">
						<output> 1.1386206150054932 </output>
					</split>
				</split>
				<split pos="right">
					<output> -0.5990688800811768 </output>
				</split>
			</split>
			<split pos="right">
				<feature> 148 </feature>
				<threshold> 5.0 </threshold>
				<split pos="left">
					<output> 0.8474099636077881 </output>
				</split>
				<split pos="right">
					<feature> 150 </feature>
					<threshold> 0.8333333 </threshold>
					<split pos="left">
						<feature> 132 </feature>
						<threshold> 0.828125 </threshold>
						<split pos="left">
							<output> 0.8595132827758789 </output>
						</split>
						<split pos="right">
							<feature> 68 </feature>
							<threshold> 0.2890625 </threshold>
							<split pos="left">
								<output> 0.8043726682662964 </output>
							</split>
							<split pos="right">
								<output> 1.0050084590911865 </output>
							</split>
						</split>
					</split>
					<split pos="right">
						<output> 1.8696867227554321 </output>
					</split>
				</split>
			</split>
		</split>
	</tree>
	<tree id="16" weight="0.1">
		<split>
			<feature> 132 </feature>
			<threshold> 0.5078125 </threshold>
			<split pos="left">
				<feature> 140 </feature>
				<threshold> 0.4101566 </threshold>
				<split pos="left">
					<feature> 121 </feature>
					<threshold> 0.6135935 </threshold>
					<split pos="left">
						<feature> 154 </feature>
						<threshold> 2.9197028 </threshold>
						<split pos="left">
							<feature> 44 </feature>
							<threshold> 0.33333334 </threshold>
							<split pos="left">
								<output> -0.4311167597770691 </output>
							</split>
							<split pos="right">
								<output> 0.8384003043174744 </output>
							</split>
						</split>
						<split pos="right">
							<output> 1.0816482305526733 </output>
						</split>
					</split>
					<split pos="right">
						<output> 1.115818738937378 </output>
					</split>
				</split>
				<split pos="right">
					<output> -0.5543530583381653 </output>
				</split>
			</split>
			<split pos="right">
				<feature> 148 </feature>
				<threshold> 5.0 </threshold>
				<split pos="left">
					<output> 0.8062362670898438 </output>
				</split>
				<split pos="right">
					<feature> 150 </feature>
					<threshold> 0.8333333 </threshold>
					<split pos="left">
						<feature> 68 </feature>
						<threshold> 0.3125 </threshold>
						<split pos="left">
							<feature> 120 </feature>
							<threshold> 0.83984375 </threshold>
							<split pos="left">
								<output> 0.6581189632415771 </output>
							</split>
							<split pos="right">
								<output> 1.0447205305099487 </output>
							</split>
						</split>
						<split pos="right">
							<output> 1.0382620096206665 </output>
						</split>
					</split>
					<split pos="right">
						<output> 1.6811226606369019 </output>
					</split>
				</split>
			</split>
		</split>
	</tree>
	<tree id="17" weight="0.1">
		<split>
			<feature> 132 </feature>
			<threshold> 0.5078125 </threshold>
			<split pos="left">
				<feature> 140 </feature>
				<threshold> 0.4101566 </threshold>
				<split pos="left">
					<feature> 123 </feature>
					<threshold> 0.6135935 </threshold>
					<split pos="left">
						<feature> 154 </feature>
						<threshold> 2.9197028 </threshold>
						<split pos="left">
							<feature> 44 </feature>
							<threshold> 0.33333334 </threshold>
							<split pos="left">
								<output> -0.4382486641407013 </output>
							</split>
							<split pos="right">
								<output> 0.7935445308685303 </output>
							</split>
						</split>
						<split pos="right">
							<output> 1.0578763484954834 </output>
						</split>
					</split>
					<split pos="right">
						<output> 1.0972203016281128 </output>
					</split>
				</split>
				<split pos="right">
					<output> -0.5054860711097717 </output>
				</split>
			</split>
			<split pos="right">
				<feature> 148 </feature>
				<threshold> 5.0 </threshold>
				<split pos="left">
					<output> 0.7642128467559814 </output>
				</split>
				<split pos="right">
					<feature> 150 </feature>
					<threshold> 0.8333333 </threshold>
					<split pos="left">
						<feature> 92 </feature>
						<threshold> 0.55859375 </threshold>
						<split pos="left">
							<output> 0.41524383425712585 </output>
						</split>
						<split pos="right">
							<feature> 132 </feature>
							<threshold> 0.82421875 </threshold>
							<split pos="left">
								<output> 0.9443175792694092 </output>
							</split>
							<split pos="right">
								<output> 0.9577317833900452 </output>
							</split>
						</split>
					</split>
					<split pos="right">
						<output> 1.5464835166931152 </output>
					</split>
				</split>
			</split>
		</split>
	</tree>
	<tree id="18" weight="0.1">
		<split>
			<feature> 132 </feature>
			<threshold> 0.5078125 </threshold>
			<split pos="left">
				<feature> 138 </feature>
				<threshold> 0.26953125 </threshold>
				<split pos="left">
					<output> 0.733694851398468 </output>
				</split>
				<split pos="right">
					<feature> 132 </feature>
					<threshold> 0.26953125 </threshold>
					<split pos="left">
						<feature> 140 </feature>
						<threshold> 0.23789051 </threshold>
						<split pos="left">
							<output> -2.5605499744415283 </output>
						</split>
						<split pos="right">
							<feature> 119 </feature>
							<threshold> 0.42578125 </threshold>
							<split pos="left">
								<output> 0.7974736094474792 </output>
							</split>
							<split pos="right">
								<output> -0.8568600416183472 </output>
							</split>
						</split>
					</split>
					<split pos="right">
						<output> 1.3237978219985962 </output>
					</split>
				</split>
			</split>
			<split pos="right">
				<feature> 148 </feature>
				<threshold> 5.0 </threshold>
				<split pos="left">
					<output> 0.7214820981025696 </output>
				</split>
				<split pos="right">
					<feature> 150 </feature>
					<threshold> 0.8333333 </threshold>
					<split pos="left">
						<feature> 92 </feature>
						<threshold> 0.55859375 </threshold>
						<split pos="left">
							<output> 0.36088407039642334 </output>
						</split>
						<split pos="right">
							<feature> 154 </feature>
							<threshold> 1.3117507 </threshold>
							<split pos="left">
								<output> 0.9727266430854797 </output>
							</split>
							<split pos="right">
								<output> 0.5456281900405884 </output>
							</split>
						</split>
					</split>
					<split pos="right">
						<output> 1.4469609260559082 </output>
					</split>
				</split>
			</split>
		</split>
	</tree>
	<tree id="19" weight="0.1">
		<split>
			<feature> 132 </feature>
			<threshold> 0.30078125 </threshold>
			<split pos="left">
				<output> -1.0497010946273804 </output>
			</split>
			<split pos="right">
				<feature> 132 </feature>
				<threshold> 0.5078125 </threshold>
				<split pos="left">
					<feature> 154 </feature>
					<threshold> 2.9197028 </threshold>
					<split pos="left">
						<feature> 155 </feature>
						<threshold> 0.01953125 </threshold>
						<split pos="left">
							<feature> 142 </feature>
							<threshold> -1.5572903 </threshold>
							<split pos="left">
								<output> 1.749416708946228 </output>
							</split>
							<split pos="right">
								<output> 1.5708069801330566 </output>
							</split>
						</split>
						<split pos="right">
							<feature> 118 </feature>
							<threshold> 0.3203125 </threshold>
							<split pos="left">
								<output> 1.7228997945785522 </output>
							</split>
							<split pos="right">
								<feature> 134 </feature>
								<threshold> 0.30859375 </threshold>
								<split pos="left">
									<output> 1.2474795579910278 </output>
								</split>
								<split pos="right">
									<feature> 137 </feature>
									<threshold> 0.05859375 </threshold>
									<split pos="left">
										<output> 1.1279895305633545 </output>
									</split>
									<split pos="right">
										<output> 1.6697098016738892 </output>
									</split>
								</split>
							</split>
						</split>
					</split>
					<split pos="right">
						<output> 1.6074179410934448 </output>
					</split>
				</split>
				<split pos="right">
					<feature> 148 </feature>
					<threshold> 5.0 </threshold>
					<split pos="left">
						<output> 0.7031042575836182 </output>
					</split>
					<split pos="right">
						<output> 0.8120714426040649 </output>
					</split>
				</split>
			</split>
		</split>
	</tree>
	<tree id="20" weight="0.1">
		<split>
			<feature> 132 </feature>
			<threshold> 0.30078125 </threshold>
			<split pos="left">
				<feature> 140 </feature>
				<threshold> 0.41835976 </threshold>
				<split pos="left">
					<output> 0.4477027356624603 </output>
				</split>
				<split pos="right">
					<output> -1.1469862461090088 </output>
				</split>
			</split>
			<split pos="right">
				<feature> 115 </feature>
				<threshold> 0.0859375 </threshold>
				<split pos="left">
					<output> 1.438227653503418 </output>
				</split>
				<split pos="right">
					<feature> 154 </feature>
					<threshold> 2.9197028 </threshold>
					<split pos="left">
						<feature> 132 </feature>
						<threshold> 0.51171875 </threshold>
						<split pos="left">
							<feature> 155 </feature>
							<threshold> 0.01953125 </threshold>
							<split pos="left">
								<output> 1.4336918592453003 </output>
							</split>
							<split pos="right">
								<feature> 134 </feature>
								<threshold> 0.30859375 </threshold>
								<split pos="left">
									<output> 0.9897876977920532 </output>
								</split>
								<split pos="right">
									<feature> 137 </feature>
									<threshold> 0.05859375 </threshold>
									<split pos="left">
										<output> 1.1034934520721436 </output>
									</split>
									<split pos="right">
										<feature> 113 </feature>
										<threshold> 0.34895813 </threshold>
										<split pos="left">
											<output> 1.561570644378662 </output>
										</split>
										<split pos="right">
											<output> 1.4700647592544556 </output>
										</split>
									</split>
								</split>
							</split>
						</split>
						<split pos="right">
							<output> 0.6826167106628418 </output>
						</split>
					</split>
					<split pos="right">
						<output> 1.4404700994491577 </output>
					</split>
				</split>
			</split>
		</split>
	</tree>
	<tree id="21" weight="0.1">
		<split>
			<feature> 132 </feature>
			<threshold> 0.30078125 </threshold>
			<split pos="left">
				<feature> 130 </feature>
				<threshold> 0.25 </threshold>
				<split pos="left">
					<output> -0.9483484029769897 </output>
				</split>
				<split pos="right">
					<output> 0.7789788246154785 </output>
				</split>
			</split>
			<split pos="right">
				<feature> 115 </feature>
				<threshold> 0.0859375 </threshold>
				<split pos="left">
					<output> 1.3389790058135986 </output>
				</split>
				<split pos="right">
					<feature> 154 </feature>
					<threshold> 2.9197028 </threshold>
					<split pos="left">
						<feature> 132 </feature>
						<threshold> 0.828125 </threshold>
						<split pos="left">
							<feature> 155 </feature>
							<threshold> 0.01953125 </threshold>
							<split pos="left">
								<feature> 142 </feature>
								<threshold> -1.5572903 </threshold>
								<split pos="left">
									<output> 1.3781297206878662 </output>
								</split>
								<split pos="right">
									<output> 1.1564043760299683 </output>
								</split>
							</split>
							<split pos="right">
								<feature> 134 </feature>
								<threshold> 0.30859375 </threshold>
								<split pos="left">
									<output> 0.6778115034103394 </output>
								</split>
								<split pos="right">
									<feature> 113 </feature>
									<threshold> 0.34895813 </threshold>
									<split pos="left">
										<output> 1.4052485227584839 </output>
									</split>
									<split pos="right">
										<output> 1.1950013637542725 </output>
									</split>
								</split>
							</split>
						</split>
						<split pos="right">
							<output> 0.6803059577941895 </output>
						</split>
					</split>
					<split pos="right">
						<output> 1.3514769077301025 </output>
					</split>
				</split>
			</split>
		</split>
	</tree>
	<tree id="22" weight="0.1">
		<split>
			<feature> 131 </feature>
			<threshold> 0.6015625 </threshold>
			<split pos="left">
				<feature> 138 </feature>
				<threshold> 0.49609375 </threshold>
				<split pos="left">
					<feature> 124 </feature>
					<threshold> 0.8203125 </threshold>
					<split pos="left">
						<output> 0.5244202613830566 </output>
					</split>
					<split pos="right">
						<output> 1.0275462865829468 </output>
					</split>
				</split>
				<split pos="right">
					<output> -1.0451629161834717 </output>
				</split>
			</split>
			<split pos="right">
				<feature> 115 </feature>
				<threshold> 0.0859375 </threshold>
				<split pos="left">
					<output> 1.272434115409851 </output>
				</split>
				<split pos="right">
					<feature> 154 </feature>
					<threshold> 2.9197028 </threshold>
					<split pos="left">
						<feature> 135 </feature>
						<threshold> 0.23828125 </threshold>
						<split pos="left">
							<feature> 155 </feature>
							<threshold> 0.01953125 </threshold>
							<split pos="left">
								<feature> 142 </feature>
								<threshold> -1.5572903 </threshold>
								<split pos="left">
									<output> 1.3155412673950195 </output>
								</split>
								<split pos="right">
									<output> 1.101272463798523 </output>
								</split>
							</split>
							<split pos="right">
								<output> 0.8261409401893616 </output>
							</split>
						</split>
						<split pos="right">
							<feature> 155 </feature>
							<threshold> 0.03125 </threshold>
							<split pos="left">
								<output> 1.2478816509246826 </output>
							</split>
							<split pos="right">
								<output> 1.0944360494613647 </output>
							</split>
						</split>
					</split>
					<split pos="right">
						<output> 1.2839710712432861 </output>
					</split>
				</split>
			</split>
		</split>
	</tree>
	<tree id="23" weight="0.1">
		<split>
			<feature> 131 </feature>
			<threshold> 0.6015625 </threshold>
			<split pos="left">
				<feature> 138 </feature>
				<threshold> 0.49609375 </threshold>
				<split pos="left">
					<feature> 124 </feature>
					<threshold> 0.8203125 </threshold>
					<split pos="left">
						<output> 0.6424282193183899 </output>
					</split>
					<split pos="right">
						<output> 1.0490506887435913 </output>
					</split>
				</split>
				<split pos="right">
					<output> -1.0049569606781006 </output>
				</split>
			</split>
			<split pos="right">
				<feature> 135 </feature>
				<threshold> 0.23828125 </threshold>
				<split pos="left">
					<feature> 115 </feature>
					<threshold> 0.0859375 </threshold>
					<split pos="left">
						<output> 1.2184067964553833 </output>
					</split>
					<split pos="right">
						<feature> 155 </feature>
						<threshold> 0.01953125 </threshold>
						<split pos="left">
							<feature> 142 </feature>
							<threshold> -1.5572903 </threshold>
							<split pos="left">
								<output> 1.2527722120285034 </output>
							</split>
							<split pos="right">
								<output> 1.0328569412231445 </output>
							</split>
						</split>
						<split pos="right">
							<output> 0.7102738618850708 </output>
						</split>
					</split>
				</split>
				<split pos="right">
					<feature> 155 </feature>
					<threshold> 0.03125 </threshold>
					<split pos="left">
						<output> 1.2024716138839722 </output>
					</split>
					<split pos="right">
						<feature> 154 </feature>
						<threshold> 2.9197028 </threshold>
						<split pos="left">
							<output> 1.0462321043014526 </output>
						</split>
						<split pos="right">
							<output> 1.2267029285430908 </output>
						</split>
					</split>
				</split>
			</split>
		</split>
	</tree>
	<tree id="24" weight="0.1">
		<split>
			<feature> 131 </feature>
			<threshold> 0.6015625 </threshold>
			<split pos="left">
				<feature> 138 </feature>
				<threshold> 0.49609375 </threshold>
				<split pos="left">
					<feature> 124 </feature>
					<threshold> 0.8203125 </threshold>
					<split pos="left">
						<output> 0.5833375453948975 </output>
					</split>
					<split pos="right">
						<output> 1.0246070623397827 </output>
					</split>
				</split>
				<split pos="right">
					<output> -0.9491693377494812 </output>
				</split>
			</split>
			<split pos="right">
				<feature> 135 </feature>
				<threshold> 0.23828125 </threshold>
				<split pos="left">
					<feature> 115 </feature>
					<threshold> 0.0859375 </threshold>
					<split pos="left">
						<output> 1.1596486568450928 </output>
					</split>
					<split pos="right">
						<feature> 155 </feature>
						<threshold> 0.01953125 </threshold>
						<split pos="left">
							<feature> 142 </feature>
							<threshold> -1.5572903 </threshold>
							<split pos="left">
								<output> 1.2029058933258057 </output>
							</split>
							<split pos="right">
								<output> 0.9642992615699768 </output>
							</split>
						</split>
						<split pos="right">
							<output> 0.6367863416671753 </output>
						</split>
					</split>
				</split>
				<split pos="right">
					<feature> 155 </feature>
					<threshold> 0.03125 </threshold>
					<split pos="left">
						<output> 1.1564949750900269 </output>
					</split>
					<split pos="right">
						<feature> 154 </feature>
						<threshold> 2.9197028 </threshold>
						<split pos="left">
							<output> 0.9921448230743408 </output>
						</split>
						<split pos="right">
							<output> 1.180431842803955 </output>
						</split>
					</split>
				</split>
			</split>
		</split>
	</tree>
	<tree id="25" weight="0.1">
		<split>
			<feature> 131 </feature>
			<threshold> 0.6015625 </threshold>
			<split pos="left">
				<feature> 136 </feature>
				<threshold> 0.265625 </threshold>
				<split pos="left">
					<output> 0.7349688410758972 </output>
				</split>
				<split pos="right">
					<feature> 140 </feature>
					<threshold> 0.29121095 </threshold>
					<split pos="left">
						<output> -1.035866141319275 </output>
					</split>
					<split pos="right">
						<feature> 130 </feature>
						<threshold> 0.17578125 </threshold>
						<split pos="left">
							<output> -0.9019254446029663 </output>
						</split>
						<split pos="right">
							<output> 0.3506642282009125 </output>
						</split>
					</split>
				</split>
			</split>
			<split pos="right">
				<feature> 135 </feature>
				<threshold> 0.23828125 </threshold>
				<split pos="left">
					<feature> 115 </feature>
					<threshold> 0.0859375 </threshold>
					<split pos="left">
						<output> 1.1122941970825195 </output>
					</split>
					<split pos="right">
						<feature> 155 </feature>
						<threshold> 0.01953125 </threshold>
						<split pos="left">
							<output> 0.9422482848167419 </output>
						</split>
						<split pos="right">
							<output> 0.5702641606330872 </output>
						</split>
					</split>
				</split>
				<split pos="right">
					<feature> 155 </feature>
					<threshold> 0.03125 </threshold>
					<split pos="left">
						<output> 1.120270848274231 </output>
					</split>
					<split pos="right">
						<feature> 154 </feature>
						<threshold> 2.9197028 </threshold>
						<split pos="left">
							<output> 0.9494639039039612 </output>
						</split>
						<split pos="right">
							<output> 1.1430761814117432 </output>
						</split>
					</split>
				</split>
			</split>
		</split>
	</tree>
	<tree id="26" weight="0.1">
		<split>
			<feature> 131 </feature>
			<threshold> 0.6015625 </threshold>
			<split pos="left">
				<feature> 136 </feature>
				<threshold> 0.265625 </threshold>
				<split pos="left">
					<output> 0.7268149852752686 </output>
				</split>
				<split pos="right">
					<feature> 132 </feature>
					<threshold> 0.03125 </threshold>
					<split pos="left">
						<output> -0.9983412623405457 </output>
					</split>
					<split pos="right">
						<output> 0.333099901676178 </output>
					</split>
				</split>
			</split>
			<split pos="right">
				<feature> 135 </feature>
				<threshold> 0.23828125 </threshold>
				<split pos="left">
					<feature> 115 </feature>
					<threshold> 0.0859375 </threshold>
					<split pos="left">
						<output> 1.069756031036377 </output>
					</split>
					<split pos="right">
						<feature> 155 </feature>
						<threshold> 0.01953125 </threshold>
						<split pos="left">
							<output> 0.893277108669281 </output>
						</split>
						<split pos="right">
							<output> 0.5157992839813232 </output>
						</split>
					</split>
				</split>
				<split pos="right">
					<feature> 155 </feature>
					<threshold> 0.03125 </threshold>
					<split pos="left">
						<output> 1.0914912223815918 </output>
					</split>
					<split pos="right">
						<feature> 74 </feature>
						<threshold> 0.43359375 </threshold>
						<split pos="left">
							<output> 1.1569620370864868 </output>
						</split>
						<split pos="right">
							<feature> 154 </feature>
							<threshold> 2.9197028 </threshold>
							<split pos="left">
								<output> 0.8999717235565186 </output>
							</split>
							<split pos="right">
								<output> 1.1126656532287598 </output>
							</split>
						</split>
					</split>
				</split>
			</split>
		</split>
	</tree>
	<tree id="27" weight="0.1">
		<split>
			<feature> 131 </feature>
			<threshold> 0.6015625 </threshold>
			<split pos="left">
				<feature> 140 </feature>
				<threshold> 0.11484372 </threshold>
				<split pos="left">
					<output> -1.4408265352249146 </output>
				</split>
				<split pos="right">
					<feature> 138 </feature>
					<threshold> 0.49609375 </threshold>
					<split pos="left">
						<feature> 124 </feature>
						<threshold> 0.8203125 </threshold>
						<split pos="left">
							<output> 0.7415486574172974 </output>
						</split>
						<split pos="right">
							<output> 1.0048596858978271 </output>
						</split>
					</split>
					<split pos="right">
						<output> -0.8269627094268799 </output>
					</split>
				</split>
			</split>
			<split pos="right">
				<feature> 135 </feature>
				<threshold> 0.23828125 </threshold>
				<split pos="left">
					<feature> 115 </feature>
					<threshold> 0.0859375 </threshold>
					<split pos="left">
						<output> 1.0382707118988037 </output>
					</split>
					<split pos="right">
						<feature> 155 </feature>
						<threshold> 0.01953125 </threshold>
						<split pos="left">
							<output> 0.8490420579910278 </output>
						</split>
						<split pos="right">
							<output> 0.47601118683815 </output>
						</split>
					</split>
				</split>
				<split pos="right">
					<feature> 74 </feature>
					<threshold> 0.39453125 </threshold>
					<split pos="left">
						<output> 1.140097975730896 </output>
					</split>
					<split pos="right">
						<feature> 155 </feature>
						<threshold> 0.03125 </threshold>
						<split pos="left">
							<output> 1.0653873682022095 </output>
						</split>
						<split pos="right">
							<output> 0.8671811819076538 </output>
						</split>
					</split>
				</split>
			</split>
		</split>
	</tree>
	<tree id="28" weight="0.1">
		<split>
			<feature> 131 </feature>
			<threshold> 0.6015625 </threshold>
			<split pos="left">
				<feature> 141 </feature>
				<threshold> 0.1066406 </threshold>
				<split pos="left">
					<output> -1.228522777557373 </output>
				</split>
				<split pos="right">
					<feature> 136 </feature>
					<threshold> 0.16796875 </threshold>
					<split pos="left">
						<output> 1.091915488243103 </output>
					</split>
					<split pos="right">
						<feature> 132 </feature>
						<threshold> 0.0234375 </threshold>
						<split pos="left">
							<output> -0.9316895008087158 </output>
						</split>
						<split pos="right">
							<output> 0.45589640736579895 </output>
						</split>
					</split>
				</split>
			</split>
			<split pos="right">
				<feature> 115 </feature>
				<threshold> 0.0859375 </threshold>
				<split pos="left">
					<output> 1.0598223209381104 </output>
				</split>
				<split pos="right">
					<feature> 135 </feature>
					<threshold> 0.23828125 </threshold>
					<split pos="left">
						<feature> 155 </feature>
						<threshold> 0.01953125 </threshold>
						<split pos="left">
							<output> 0.8085684776306152 </output>
						</split>
						<split pos="right">
							<output> 0.4202519953250885 </output>
						</split>
					</split>
					<split pos="right">
						<feature> 74 </feature>
						<threshold> 0.390625 </threshold>
						<split pos="left">
							<output> 1.1217116117477417 </output>
						</split>
						<split pos="right">
							<feature> 155 </feature>
							<threshold> 0.03125 </threshold>
							<split pos="left">
								<output> 1.043233036994934 </output>
							</split>
							<split pos="right">
								<output> 0.7978165149688721 </output>
							</split>
						</split>
					</split>
				</split>
			</split>
		</split>
	</tree>
	<tree id="29" weight="0.1">
		<split>
			<feature> 131 </feature>
			<threshold> 0.6015625 </threshold>
			<split pos="left">
				<feature> 141 </feature>
				<threshold> 0.23378895 </threshold>
				<split pos="left">
					<output> -0.7849014401435852 </output>
				</split>
				<split pos="right">
					<feature> 136 </feature>
					<threshold> 0.1796875 </threshold>
					<split pos="left">
						<output> 1.1848615407943726 </output>
					</split>
					<split pos="right">
						<feature> 142 </feature>
						<threshold> -1.2317685 </threshold>
						<split pos="left">
							<output> 0.36077168583869934 </output>
						</split>
						<split pos="right">
							<output> -0.9646071791648865 </output>
						</split>
					</split>
				</split>
			</split>
			<split pos="right">
				<feature> 135 </feature>
				<threshold> 0.23828125 </threshold>
				<split pos="left">
					<feature> 149 </feature>
					<threshold> 1.0 </threshold>
					<split pos="left">
						<output> -0.8436813950538635 </output>
					</split>
					<split pos="right">
						<feature> 115 </feature>
						<threshold> 0.0859375 </threshold>
						<split pos="left">
							<output> 1.0349541902542114 </output>
						</split>
						<split pos="right">
							<feature> 155 </feature>
							<threshold> 0.01953125 </threshold>
							<split pos="left">
								<output> 0.8944090604782104 </output>
							</split>
							<split pos="right">
								<output> 0.5258166790008545 </output>
							</split>
						</split>
					</split>
				</split>
				<split pos="right">
					<feature> 74 </feature>
					<threshold> 0.3671875 </threshold>
					<split pos="left">
						<output> 1.1068016290664673 </output>
					</split>
					<split pos="right">
						<output> 0.8208391070365906 </output>
					</split>
				</split>
			</split>
		</split>
	</tree>
	<tree id="30" weight="0.1">
		<split>
			<feature> 131 </feature>
			<threshold> 0.6015625 </threshold>
			<split pos="left">
				<feature> 141 </feature>
				<threshold> 0.24609363 </threshold>
				<split pos="left">
					<output> -0.7249359488487244 </output>
				</split>
				<split pos="right">
					<feature> 138 </feature>
					<threshold> 0.5 </threshold>
					<split pos="left">
						<feature> 121 </feature>
						<threshold> 0.035859376 </threshold>
						<split pos="left">
							<output> 1.1630476713180542 </output>
						</split>
						<split pos="right">
							<output> 0.6580511331558228 </output>
						</split>
					</split>
					<split pos="right">
						<output> -0.7469122409820557 </output>
					</split>
				</split>
			</split>
			<split pos="right">
				<feature> 115 </feature>
				<threshold> 0.0859375 </threshold>
				<split pos="left">
					<output> 1.0179922580718994 </output>
				</split>
				<split pos="right">
					<feature> 117 </feature>
					<threshold> 0.109375 </threshold>
					<split pos="left">
						<output> -6.8864359855651855 </output>
					</split>
					<split pos="right">
						<feature> 135 </feature>
						<threshold> 0.23828125 </threshold>
						<split pos="left">
							<feature> 140 </feature>
							<threshold> 0.3322267 </threshold>
							<split pos="left">
								<output> -0.9125213027000427 </output>
							</split>
							<split pos="right">
								<feature> 155 </feature>
								<threshold> 0.01953125 </threshold>
								<split pos="left">
									<output> 0.8025683760643005 </output>
								</split>
								<split pos="right">
									<output> 0.5120726227760315 </output>
								</split>
							</split>
						</split>
						<split pos="right">
							<output> 0.7712340950965881 </output>
						</split>
					</split>
				</split>
			</split>
		</split>
	</tree>
	<tree id="31" weight="0.1">
		<split>
			<feature> 131 </feature>
			<threshold> 0.6015625 </threshold>
			<split pos="left">
				<feature> 130 </feature>
				<threshold> 0.296875 </threshold>
				<split pos="left">
					<feature> 139 </feature>
					<threshold> 0.47168022 </threshold>
					<split pos="left">
						<feature> 133 </feature>
						<threshold> 0.62890625 </threshold>
						<split pos="left">
							<feature> 45 </feature>
							<threshold> 0.22222224 </threshold>
							<split pos="left">
								<output> -0.3291654884815216 </output>
							</split>
							<split pos="right">
								<output> 1.1089991331100464 </output>
							</split>
						</split>
						<split pos="right">
							<output> 1.1066560745239258 </output>
						</split>
					</split>
					<split pos="right">
						<output> -0.8578530550003052 </output>
					</split>
				</split>
				<split pos="right">
					<output> -0.7327738404273987 </output>
				</split>
			</split>
			<split pos="right">
				<feature> 115 </feature>
				<threshold> 0.0859375 </threshold>
				<split pos="left">
					<output> 0.9971097707748413 </output>
				</split>
				<split pos="right">
					<feature> 149 </feature>
					<threshold> 1.0 </threshold>
					<split pos="left">
						<output> -0.4925044775009155 </output>
					</split>
					<split pos="right">
						<feature> 132 </feature>
						<threshold> 0.9296875 </threshold>
						<split pos="left">
							<feature> 135 </feature>
							<threshold> 0.23828125 </threshold>
							<split pos="left">
								<output> 0.5706341862678528 </output>
							</split>
							<split pos="right">
								<output> 0.8614133596420288 </output>
							</split>
						</split>
						<split pos="right">
							<output> 0.7994747757911682 </output>
						</split>
					</split>
				</split>
			</split>
		</split>
	</tree>
	<tree id="32" weight="0.1">
		<split>
			<feature> 131 </feature>
			<threshold> 0.96484375 </threshold>
			<split pos="left">
				<feature> 130 </feature>
				<threshold> 0.21875 </threshold>
				<split pos="left">
					<feature> 132 </feature>
					<threshold> 0.21484375 </threshold>
					<split pos="left">
						<feature> 136 </feature>
						<threshold> 0.14453125 </threshold>
						<split pos="left">
							<output> 0.7334636449813843 </output>
						</split>
						<split pos="right">
							<output> -0.6673009991645813 </output>
						</split>
					</split>
					<split pos="right">
						<feature> 74 </feature>
						<threshold> 0.04296875 </threshold>
						<split pos="left">
							<output> 1.1050374507904053 </output>
						</split>
						<split pos="right">
							<feature> 118 </feature>
							<threshold> 0.12109375 </threshold>
							<split pos="left">
								<output> 0.9976944327354431 </output>
							</split>
							<split pos="right">
								<feature> 115 </feature>
								<threshold> 0.78125 </threshold>
								<split pos="left">
									<output> 0.6389865875244141 </output>
								</split>
								<split pos="right">
									<output> 1.1761471033096313 </output>
								</split>
							</split>
						</split>
					</split>
				</split>
				<split pos="right">
					<feature> 122 </feature>
					<threshold> 0.3466404 </threshold>
					<split pos="left">
						<output> -1.0372848510742188 </output>
					</split>
					<split pos="right">
						<output> 0.20772382616996765 </output>
					</split>
				</split>
			</split>
			<split pos="right">
				<feature> 134 </feature>
				<threshold> 0.0546875 </threshold>
				<split pos="left">
					<output> -1.431619644165039 </output>
				</split>
				<split pos="right">
					<output> 0.9277256727218628 </output>
				</split>
			</split>
		</split>
	</tree>
	<tree id="33" weight="0.1">
		<split>
			<feature> 131 </feature>
			<threshold> 0.96484375 </threshold>
			<split pos="left">
				<feature> 130 </feature>
				<threshold> 0.08984375 </threshold>
				<split pos="left">
					<feature> 131 </feature>
					<threshold> 0.42578125 </threshold>
					<split pos="left">
						<feature> 139 </feature>
						<threshold> 0.39785188 </threshold>
						<split pos="left">
							<feature> 55 </feature>
							<threshold> 0.56584877 </threshold>
							<split pos="left">
								<output> 0.6595094203948975 </output>
							</split>
							<split pos="right">
								<output> 0.9747346639633179 </output>
							</split>
						</split>
						<split pos="right">
							<output> -0.7873318195343018 </output>
						</split>
					</split>
					<split pos="right">
						<feature> 118 </feature>
						<threshold> 0.20703125 </threshold>
						<split pos="left">
							<output> 1.2974241971969604 </output>
						</split>
						<split pos="right">
							<output> 0.5945707559585571 </output>
						</split>
					</split>
				</split>
				<split pos="right">
					<feature> 140 </feature>
					<threshold> 0.4265629 </threshold>
					<split pos="left">
						<feature> 157 </feature>
						<threshold> 54.0 </threshold>
						<split pos="left">
							<output> -0.5478405356407166 </output>
						</split>
						<split pos="right">
							<output> -1.624664545059204 </output>
						</split>
					</split>
					<split pos="right">
						<output> 0.17477871477603912 </output>
					</split>
				</split>
			</split>
			<split pos="right">
				<feature> 141 </feature>
				<threshold> 0.40195346 </threshold>
				<split pos="left">
					<output> 0.6919503808021545 </output>
				</split>
				<split pos="right">
					<output> 0.7714674472808838 </output>
				</split>
			</split>
		</split>
	</tree>
	<tree id="34" weight="0.1">
		<split>
			<feature> 131 </feature>
			<threshold> 0.96484375 </threshold>
			<split pos="left">
				<feature> 140 </feature>
				<threshold> 0.3609377 </threshold>
				<split pos="left">
					<output> -0.5494639873504639 </output>
				</split>
				<split pos="right">
					<feature> 139 </feature>
					<threshold> 0.39785188 </threshold>
					<split pos="left">
						<feature> 151 </feature>
						<threshold> 0.93367773 </threshold>
						<split pos="left">
							<feature> 121 </feature>
							<threshold> 0.64148426 </threshold>
							<split pos="left">
								<feature> 132 </feature>
								<threshold> 0.9296875 </threshold>
								<split pos="left">
									<feature> 118 </feature>
									<threshold> 0.26953125 </threshold>
									<split pos="left">
										<output> 1.2131651639938354 </output>
									</split>
									<split pos="right">
										<output> 0.5514936447143555 </output>
									</split>
								</split>
								<split pos="right">
									<output> 0.9647396802902222 </output>
								</split>
							</split>
							<split pos="right">
								<feature> 63 </feature>
								<threshold> 0.33984375 </threshold>
								<split pos="left">
									<output> 1.6542390584945679 </output>
								</split>
								<split pos="right">
									<output> 1.6311548948287964 </output>
								</split>
							</split>
						</split>
						<split pos="right">
							<output> 1.7997177839279175 </output>
						</split>
					</split>
					<split pos="right">
						<output> -0.5788866877555847 </output>
					</split>
				</split>
			</split>
			<split pos="right">
				<feature> 134 </feature>
				<threshold> 0.0546875 </threshold>
				<split pos="left">
					<output> -1.620803713798523 </output>
				</split>
				<split pos="right">
					<output> 0.8159568905830383 </output>
				</split>
			</split>
		</split>
	</tree>
	<tree id="35" weight="0.1">
		<split>
			<feature> 131 </feature>
			<threshold> 0.96484375 </threshold>
			<split pos="left">
				<feature> 130 </feature>
				<threshold> 0.08984375 </threshold>
				<split pos="left">
					<feature> 139 </feature>
					<threshold> 0.39785188 </threshold>
					<split pos="left">
						<feature> 147 </feature>
						<threshold> 0.32552072 </threshold>
						<split pos="left">
							<feature> 121 </feature>
							<threshold> 0.64148426 </threshold>
							<split pos="left">
								<feature> 133 </feature>
								<threshold> 0.6171875 </threshold>
								<split pos="left">
									<output> 0.5539422631263733 </output>
								</split>
								<split pos="right">
									<output> 1.1010839939117432 </output>
								</split>
							</split>
							<split pos="right">
								<feature> 54 </feature>
								<threshold> 0.22390653 </threshold>
								<split pos="left">
									<output> 1.4752529859542847 </output>
								</split>
								<split pos="right">
									<output> 1.5269782543182373 </output>
								</split>
							</split>
						</split>
						<split pos="right">
							<output> 1.6308289766311646 </output>
						</split>
					</split>
					<split pos="right">
						<output> -0.6094683408737183 </output>
					</split>
				</split>
				<split pos="right">
					<feature> 154 </feature>
					<threshold> 0.7757666 </threshold>
					<split pos="left">
						<output> -0.03860838711261749 </output>
					</split>
					<split pos="right">
						<output> -1.3705922365188599 </output>
					</split>
				</split>
			</split>
			<split pos="right">
				<feature> 120 </feature>
				<threshold> 0.5859375 </threshold>
				<split pos="left">
					<output> 0.8399619460105896 </output>
				</split>
				<split pos="right">
					<output> 0.5410462021827698 </output>
				</split>
			</split>
		</split>
	</tree>
	<tree id="36" weight="0.1">
		<split>
			<feature> 131 </feature>
			<threshold> 0.96484375 </threshold>
			<split pos="left">
				<feature> 140 </feature>
				<threshold> 0.377344 </threshold>
				<split pos="left">
					<output> -0.4702647030353546 </output>
				</split>
				<split pos="right">
					<feature> 139 </feature>
					<threshold> 0.5044928 </threshold>
					<split pos="left">
						<feature> 146 </feature>
						<threshold> 0.32812488 </threshold>
						<split pos="left">
							<feature> 121 </feature>
							<threshold> 0.64945304 </threshold>
							<split pos="left">
								<feature> 115 </feature>
								<threshold> 0.63671875 </threshold>
								<split pos="left">
									<feature> 132 </feature>
									<threshold> 0.953125 </threshold>
									<split pos="left">
										<feature> 150 </feature>
										<threshold> 0.09090909 </threshold>
										<split pos="left">
											<output> 1.1307357549667358 </output>
										</split>
										<split pos="right">
											<output> 0.5170727372169495 </output>
										</split>
									</split>
									<split pos="right">
										<output> -21.239368438720703 </output>
									</split>
								</split>
								<split pos="right">
									<output> 1.3889694213867188 </output>
								</split>
							</split>
							<split pos="right">
								<feature> 115 </feature>
								<threshold> 0.42578125 </threshold>
								<split pos="left">
									<output> 1.4489495754241943 </output>
								</split>
								<split pos="right">
									<output> -1.3344308137893677 </output>
								</split>
							</split>
						</split>
						<split pos="right">
							<output> 1.4958382844924927 </output>
						</split>
					</split>
					<split pos="right">
						<output> -0.7018918991088867 </output>
					</split>
				</split>
			</split>
			<split pos="right">
				<output> 0.623561680316925 </output>
			</split>
		</split>
	</tree>
	<tree id="37" weight="0.1">
		<split>
			<feature> 118 </feature>
			<threshold> 0.45703125 </threshold>
			<split pos="left">
				<feature> 124 </feature>
				<threshold> 0.8203125 </threshold>
				<split pos="left">
					<feature> 135 </feature>
					<threshold> 0.40625 </threshold>
					<split pos="left">
						<output> 0.45241931080818176 </output>
					</split>
					<split pos="right">
						<output> 1.0910409688949585 </output>
					</split>
				</split>
				<split pos="right">
					<output> 1.3885308504104614 </output>
				</split>
			</split>
			<split pos="right">
				<feature> 140 </feature>
				<threshold> 0.377344 </threshold>
				<split pos="left">
					<output> -0.5041840672492981 </output>
				</split>
				<split pos="right">
					<feature> 132 </feature>
					<threshold> 0.0859375 </threshold>
					<split pos="left">
						<output> -0.7286677360534668 </output>
					</split>
					<split pos="right">
						<feature> 130 </feature>
						<threshold> 0.99609375 </threshold>
						<split pos="left">
							<feature> 150 </feature>
							<threshold> 0.09090909 </threshold>
							<split pos="left">
								<output> 1.1226732730865479 </output>
							</split>
							<split pos="right">
								<feature> 138 </feature>
								<threshold> 0.1015625 </threshold>
								<split pos="left">
									<output> 0.7251100540161133 </output>
								</split>
								<split pos="right">
									<feature> 134 </feature>
									<threshold> 0.30859375 </threshold>
									<split pos="left">
										<output> 0.30641961097717285 </output>
									</split>
									<split pos="right">
										<output> 0.7792195081710815 </output>
									</split>
								</split>
							</split>
						</split>
						<split pos="right">
							<output> -1.875388264656067 </output>
						</split>
					</split>
				</split>
			</split>
		</split>
	</tree>
	<tree id="38" weight="0.1">
		<split>
			<feature> 145 </feature>
			<threshold> 0.429687 </threshold>
			<split pos="left">
				<feature> 118 </feature>
				<threshold> 0.45703125 </threshold>
				<split pos="left">
					<feature> 124 </feature>
					<threshold> 0.8203125 </threshold>
					<split pos="left">
						<output> 0.5610924363136292 </output>
					</split>
					<split pos="right">
						<output> 1.323000192642212 </output>
					</split>
				</split>
				<split pos="right">
					<feature> 140 </feature>
					<threshold> 0.377344 </threshold>
					<split pos="left">
						<output> -0.4401688575744629 </output>
					</split>
					<split pos="right">
						<feature> 132 </feature>
						<threshold> 0.06640625 </threshold>
						<split pos="left">
							<output> -0.7305237054824829 </output>
						</split>
						<split pos="right">
							<feature> 150 </feature>
							<threshold> 0.09090909 </threshold>
							<split pos="left">
								<output> 1.1198112964630127 </output>
							</split>
							<split pos="right">
								<feature> 130 </feature>
								<threshold> 0.9921875 </threshold>
								<split pos="left">
									<feature> 138 </feature>
									<threshold> 0.1015625 </threshold>
									<split pos="left">
										<output> 0.6873259544372559 </output>
									</split>
									<split pos="right">
										<output> 0.39027777314186096 </output>
									</split>
								</split>
								<split pos="right">
									<output> -1.3801920413970947 </output>
								</split>
							</split>
						</split>
					</split>
				</split>
			</split>
			<split pos="right">
				<feature> 118 </feature>
				<threshold> 0.4375 </threshold>
				<split pos="left">
					<output> 1.32728910446167 </output>
				</split>
				<split pos="right">
					<output> -1.3278028964996338 </output>
				</split>
			</split>
		</split>
	</tree>
	<tree id="39" weight="0.1">
		<split>
			<feature> 151 </feature>
			<threshold> 0.9490469 </threshold>
			<split pos="left">
				<feature> 131 </feature>
				<threshold> 0.96484375 </threshold>
				<split pos="left">
					<feature> 130 </feature>
					<threshold> 0.08984375 </threshold>
					<split pos="left">
						<feature> 139 </feature>
						<threshold> 0.5044928 </threshold>
						<split pos="left">
							<feature> 121 </feature>
							<threshold> 0.64945304 </threshold>
							<split pos="left">
								<feature> 133 </feature>
								<threshold> 0.62890625 </threshold>
								<split pos="left">
									<output> 0.4096314311027527 </output>
								</split>
								<split pos="right">
									<output> 1.131394386291504 </output>
								</split>
							</split>
							<split pos="right">
								<feature> 118 </feature>
								<threshold> 0.4296875 </threshold>
								<split pos="left">
									<output> 1.2646100521087646 </output>
								</split>
								<split pos="right">
									<output> -1.2433295249938965 </output>
								</split>
							</split>
						</split>
						<split pos="right">
							<output> -0.6893830895423889 </output>
						</split>
					</split>
					<split pos="right">
						<feature> 46 </feature>
						<threshold> 0.5555556 </threshold>
						<split pos="left">
							<output> 0.3827338218688965 </output>
						</split>
						<split pos="right">
							<output> -0.6873266100883484 </output>
						</split>
					</split>
				</split>
				<split pos="right">
					<output> 0.526261031627655 </output>
				</split>
			</split>
			<split pos="right">
				<feature> 118 </feature>
				<threshold> 0.4765625 </threshold>
				<split pos="left">
					<output> 1.2661932706832886 </output>
				</split>
				<split pos="right">
					<output> -1.253516435623169 </output>
				</split>
			</split>
		</split>
	</tree>
	<tree id="40" weight="0.1">
		<split>
			<feature> 118 </feature>
			<threshold> 0.45703125 </threshold>
			<split pos="left">
				<feature> 124 </feature>
				<threshold> 0.8203125 </threshold>
				<split pos="left">
					<feature> 135 </feature>
					<threshold> 0.40625 </threshold>
					<split pos="left">
						<feature> 102 </feature>
						<threshold> 0.171875 </threshold>
						<split pos="left">
							<output> -1.043121337890625 </output>
						</split>
						<split pos="right">
							<output> 0.5682613253593445 </output>
						</split>
					</split>
					<split pos="right">
						<output> 1.039853811264038 </output>
					</split>
				</split>
				<split pos="right">
					<feature> 43 </feature>
					<threshold> 0.06666667 </threshold>
					<split pos="left">
						<output> 1.2290902137756348 </output>
					</split>
					<split pos="right">
						<output> 1.0054881572723389 </output>
					</split>
				</split>
			</split>
			<split pos="right">
				<feature> 140 </feature>
				<threshold> 0.377344 </threshold>
				<split pos="left">
					<output> -0.3711337149143219 </output>
				</split>
				<split pos="right">
					<feature> 138 </feature>
					<threshold> 0.1015625 </threshold>
					<split pos="left">
						<output> 0.7197524309158325 </output>
					</split>
					<split pos="right">
						<feature> 132 </feature>
						<threshold> 0.65234375 </threshold>
						<split pos="left">
							<feature> 131 </feature>
							<threshold> 0.17578125 </threshold>
							<split pos="left">
								<output> -0.6409035921096802 </output>
							</split>
							<split pos="right">
								<output> 0.37246623635292053 </output>
							</split>
						</split>
						<split pos="right">
							<output> -0.5288764834403992 </output>
						</split>
					</split>
				</split>
			</split>
		</split>
	</tree>
	<tree id="41" weight="0.1">
		<split>
			<feature> 118 </feature>
			<threshold> 0.45703125 </threshold>
			<split pos="left">
				<feature> 124 </feature>
				<threshold> 0.8203125 </threshold>
				<split pos="left">
					<feature> 135 </feature>
					<threshold> 0.40625 </threshold>
					<split pos="left">
						<feature> 133 </feature>
						<threshold> 0.40234375 </threshold>
						<split pos="left">
							<feature> 102 </feature>
							<threshold> 0.171875 </threshold>
							<split pos="left">
								<output> -0.8903722167015076 </output>
							</split>
							<split pos="right">
								<output> 0.5301152467727661 </output>
							</split>
						</split>
						<split pos="right">
							<output> -28.329904556274414 </output>
						</split>
					</split>
					<split pos="right">
						<output> 1.0121686458587646 </output>
					</split>
				</split>
				<split pos="right">
					<output> 1.1819310188293457 </output>
				</split>
			</split>
			<split pos="right">
				<feature> 140 </feature>
				<threshold> 0.377344 </threshold>
				<split pos="left">
					<output> -0.3208542764186859 </output>
				</split>
				<split pos="right">
					<feature> 138 </feature>
					<threshold> 0.1015625 </threshold>
					<split pos="left">
						<output> 0.7105305194854736 </output>
					</split>
					<split pos="right">
						<feature> 132 </feature>
						<threshold> 0.65234375 </threshold>
						<split pos="left">
							<feature> 132 </feature>
							<threshold> 0.0234375 </threshold>
							<split pos="left">
								<output> -0.6955412030220032 </output>
							</split>
							<split pos="right">
								<output> 0.3260146975517273 </output>
							</split>
						</split>
						<split pos="right">
							<output> -0.4556065797805786 </output>
						</split>
					</split>
				</split>
			</split>
		</split>
	</tree>
	<tree id="42" weight="0.1">
		<split>
			<feature> 118 </feature>
			<threshold> 0.49609375 </threshold>
			<split pos="left">
				<feature> 151 </feature>
				<threshold> 0.92983544 </threshold>
				<split pos="left">
					<feature> 124 </feature>
					<threshold> 0.8203125 </threshold>
					<split pos="left">
						<feature> 131 </feature>
						<threshold> 0.96484375 </threshold>
						<split pos="left">
							<output> 0.2937551736831665 </output>
						</split>
						<split pos="right">
							<output> 0.7257135510444641 </output>
						</split>
					</split>
					<split pos="right">
						<feature> 48 </feature>
						<threshold> 0.8361117 </threshold>
						<split pos="left">
							<output> 0.6546095609664917 </output>
						</split>
						<split pos="right">
							<output> 1.1606603860855103 </output>
						</split>
					</split>
				</split>
				<split pos="right">
					<output> 1.1507643461227417 </output>
				</split>
			</split>
			<split pos="right">
				<feature> 132 </feature>
				<threshold> 0.828125 </threshold>
				<split pos="left">
					<feature> 140 </feature>
					<threshold> 0.377344 </threshold>
					<split pos="left">
						<output> -0.8761404156684875 </output>
					</split>
					<split pos="right">
						<feature> 130 </feature>
						<threshold> 0.61328125 </threshold>
						<split pos="left">
							<feature> 137 </feature>
							<threshold> 0.25 </threshold>
							<split pos="left">
								<output> 0.8228613138198853 </output>
							</split>
							<split pos="right">
								<output> -0.17978818714618683 </output>
							</split>
						</split>
						<split pos="right">
							<output> -0.6771896481513977 </output>
						</split>
					</split>
				</split>
				<split pos="right">
					<output> 0.23421037197113037 </output>
				</split>
			</split>
		</split>
	</tree>
	<tree id="43" weight="0.1">
		<split>
			<feature> 118 </feature>
			<threshold> 0.55859375 </threshold>
			<split pos="left">
				<feature> 124 </feature>
				<threshold> 0.8203125 </threshold>
				<split pos="left">
					<feature> 130 </feature>
					<threshold> 0.7109375 </threshold>
					<split pos="left">
						<feature> 130 </feature>
						<threshold> 0.703125 </threshold>
						<split pos="left">
							<feature> 130 </feature>
							<threshold> 0.21875 </threshold>
							<split pos="left">
								<output> 0.5196106433868408 </output>
							</split>
							<split pos="right">
								<output> -0.7821825742721558 </output>
							</split>
						</split>
						<split pos="right">
							<output> -40.34878921508789 </output>
						</split>
					</split>
					<split pos="right">
						<output> 0.461773544549942 </output>
					</split>
				</split>
				<split pos="right">
					<feature> 118 </feature>
					<threshold> 0.42578125 </threshold>
					<split pos="left">
						<output> 1.1324033737182617 </output>
					</split>
					<split pos="right">
						<output> 0.33119475841522217 </output>
					</split>
				</split>
			</split>
			<split pos="right">
				<feature> 130 </feature>
				<threshold> 0.08984375 </threshold>
				<split pos="left">
					<output> -0.2722330391407013 </output>
				</split>
				<split pos="right">
					<feature> 159 </feature>
					<threshold> 0.38756862 </threshold>
					<split pos="left">
						<feature> 147 </feature>
						<threshold> 0.0703125 </threshold>
						<split pos="left">
							<output> -0.2105957567691803 </output>
						</split>
						<split pos="right">
							<output> 1.0928492546081543 </output>
						</split>
					</split>
					<split pos="right">
						<output> -3.891819715499878 </output>
					</split>
				</split>
			</split>
		</split>
	</tree>
	<tree id="44" weight="0.1">
		<split>
			<feature> 118 </feature>
			<threshold> 0.58984375 </threshold>
			<split pos="left">
				<feature> 124 </feature>
				<threshold> 0.8203125 </threshold>
				<split pos="left">
					<feature> 130 </feature>
					<threshold> 0.7109375 </threshold>
					<split pos="left">
						<feature> 130 </feature>
						<threshold> 0.09765625 </threshold>
						<split pos="left">
							<feature> 132 </feature>
							<threshold> 0.51953125 </threshold>
							<split pos="left">
								<feature> 135 </feature>
								<threshold> 0.39453125 </threshold>
								<split pos="left">
									<feature> 116 </feature>
									<threshold> 0.390625 </threshold>
									<split pos="left">
										<output> -0.587465226650238 </output>
									</split>
									<split pos="right">
										<output> 0.4600578546524048 </output>
									</split>
								</split>
								<split pos="right">
									<output> 1.046897530555725 </output>
								</split>
							</split>
							<split pos="right">
								<output> 0.9573894143104553 </output>
							</split>
						</split>
						<split pos="right">
							<output> -0.5356116890907288 </output>
						</split>
					</split>
					<split pos="right">
						<output> 0.45585939288139343 </output>
					</split>
				</split>
				<split pos="right">
					<feature> 118 </feature>
					<threshold> 0.44921875 </threshold>
					<split pos="left">
						<output> 1.1157896518707275 </output>
					</split>
					<split pos="right">
						<output> 0.18095539510250092 </output>
					</split>
				</split>
			</split>
			<split pos="right">
				<feature> 132 </feature>
				<threshold> 0.51171875 </threshold>
				<split pos="left">
					<output> -0.34752389788627625 </output>
				</split>
				<split pos="right">
					<output> -0.44781965017318726 </output>
				</split>
			</split>
		</split>
	</tree>
	<tree id="45" weight="0.1">
		<split>
			<feature> 132 </feature>
			<threshold> 0.82421875 </threshold>
			<split pos="left">
				<feature> 130 </feature>
				<threshold> 0.1015625 </threshold>
				<split pos="left">
					<feature> 120 </feature>
					<threshold> 0.66796875 </threshold>
					<split pos="left">
						<feature> 153 </feature>
						<threshold> 0.93752 </threshold>
						<split pos="left">
							<feature> 126 </feature>
							<threshold> 0.84765625 </threshold>
							<split pos="left">
								<feature> 132 </feature>
								<threshold> 0.5390625 </threshold>
								<split pos="left">
									<feature> 131 </feature>
									<threshold> 0.96484375 </threshold>
									<split pos="left">
										<output> 0.3645270764827728 </output>
									</split>
									<split pos="right">
										<output> 0.8564522862434387 </output>
									</split>
								</split>
								<split pos="right">
									<output> 1.0211124420166016 </output>
								</split>
							</split>
							<split pos="right">
								<output> 1.1760048866271973 </output>
							</split>
						</split>
						<split pos="right">
							<output> 1.0860515832901 </output>
						</split>
					</split>
					<split pos="right">
						<output> -0.25797271728515625 </output>
					</split>
				</split>
				<split pos="right">
					<feature> 85 </feature>
					<threshold> 0.015625 </threshold>
					<split pos="left">
						<output> -1.5364060401916504 </output>
					</split>
					<split pos="right">
						<output> -0.015265697613358498 </output>
					</split>
				</split>
			</split>
			<split pos="right">
				<feature> 140 </feature>
				<threshold> 0.7957046 </threshold>
				<split pos="left">
					<output> 0.30363941192626953 </output>
				</split>
				<split pos="right">
					<output> -46.18626022338867 </output>
				</split>
			</split>
		</split>
	</tree>
	<tree id="46" weight="0.1">
		<split>
			<feature> 132 </feature>
			<threshold> 0.82421875 </threshold>
			<split pos="left">
				<feature> 130 </feature>
				<threshold> 0.08984375 </threshold>
				<split pos="left">
					<feature> 132 </feature>
					<threshold> 0.51953125 </threshold>
					<split pos="left">
						<feature> 120 </feature>
						<threshold> 0.66796875 </threshold>
						<split pos="left">
							<feature> 145 </feature>
							<threshold> 0.429687 </threshold>
							<split pos="left">
								<feature> 126 </feature>
								<threshold> 0.84765625 </threshold>
								<split pos="left">
									<feature> 131 </feature>
									<threshold> 0.96484375 </threshold>
									<split pos="left">
										<output> 0.3283115327358246 </output>
									</split>
									<split pos="right">
										<output> 0.7946119904518127 </output>
									</split>
								</split>
								<split pos="right">
									<output> 1.1442046165466309 </output>
								</split>
							</split>
							<split pos="right">
								<output> 1.074044108390808 </output>
							</split>
						</split>
						<split pos="right">
							<output> -0.28022515773773193 </output>
						</split>
					</split>
					<split pos="right">
						<output> 0.8686392903327942 </output>
					</split>
				</split>
				<split pos="right">
					<feature> 75 </feature>
					<threshold> 0.92578125 </threshold>
					<split pos="left">
						<feature> 157 </feature>
						<threshold> 54.0 </threshold>
						<split pos="left">
							<output> -0.1468164175748825 </output>
						</split>
						<split pos="right">
							<output> -0.9397458434104919 </output>
						</split>
					</split>
					<split pos="right">
						<output> 0.3962661027908325 </output>
					</split>
				</split>
			</split>
			<split pos="right">
				<output> 0.2609778940677643 </output>
			</split>
		</split>
	</tree>
	<tree id="47" weight="0.1">
		<split>
			<feature> 132 </feature>
			<threshold> 0.82421875 </threshold>
			<split pos="left">
				<feature> 130 </feature>
				<threshold> 0.796875 </threshold>
				<split pos="left">
					<feature> 120 </feature>
					<threshold> 0.66796875 </threshold>
					<split pos="left">
						<feature> 145 </feature>
						<threshold> 0.429687 </threshold>
						<split pos="left">
							<feature> 126 </feature>
							<threshold> 0.84765625 </threshold>
							<split pos="left">
								<feature> 131 </feature>
								<threshold> 0.96484375 </threshold>
								<split pos="left">
									<feature> 130 </feature>
									<threshold> 0.07421875 </threshold>
									<split pos="left">
										<feature> 135 </feature>
										<threshold> 0.640625 </threshold>
										<split pos="left">
											<output> 0.26055940985679626 </output>
										</split>
										<split pos="right">
											<output> 1.1262760162353516 </output>
										</split>
									</split>
									<split pos="right">
										<output> -0.3235262930393219 </output>
									</split>
								</split>
								<split pos="right">
									<output> 0.7105725407600403 </output>
								</split>
							</split>
							<split pos="right">
								<output> 1.1300840377807617 </output>
							</split>
						</split>
						<split pos="right">
							<output> 1.063796877861023 </output>
						</split>
					</split>
					<split pos="right">
						<output> -0.26111412048339844 </output>
					</split>
				</split>
				<split pos="right">
					<output> -1.7018564939498901 </output>
				</split>
			</split>
			<split pos="right">
				<feature> 134 </feature>
				<threshold> 0.30078125 </threshold>
				<split pos="left">
					<output> -0.27571430802345276 </output>
				</split>
				<split pos="right">
					<output> 0.6440507173538208 </output>
				</split>
			</split>
		</split>
	</tree>
	<tree id="48" weight="0.1">
		<split>
			<feature> 130 </feature>
			<threshold> 0.7109375 </threshold>
			<split pos="left">
				<feature> 132 </feature>
				<threshold> 0.8515625 </threshold>
				<split pos="left">
					<feature> 140 </feature>
					<threshold> 0.40605503 </threshold>
					<split pos="left">
						<feature> 84 </feature>
						<threshold> 0.26953125 </threshold>
						<split pos="left">
							<output> -0.8383687734603882 </output>
						</split>
						<split pos="right">
							<output> 0.3338172137737274 </output>
						</split>
					</split>
					<split pos="right">
						<feature> 120 </feature>
						<threshold> 0.66796875 </threshold>
						<split pos="left">
							<feature> 146 </feature>
							<threshold> 0.429687 </threshold>
							<split pos="left">
								<feature> 126 </feature>
								<threshold> 0.84765625 </threshold>
								<split pos="left">
									<output> 0.48618975281715393 </output>
								</split>
								<split pos="right">
									<output> 1.1217317581176758 </output>
								</split>
							</split>
							<split pos="right">
								<output> 1.053712248802185 </output>
							</split>
						</split>
						<split pos="right">
							<output> -0.24029825627803802 </output>
						</split>
					</split>
				</split>
				<split pos="right">
					<output> -56.12384796142578 </output>
				</split>
			</split>
			<split pos="right">
				<feature> 58 </feature>
				<threshold> 0.017223572 </threshold>
				<split pos="left">
					<output> -6.857861042022705 </output>
				</split>
				<split pos="right">
					<feature> 134 </feature>
					<threshold> 0.30078125 </threshold>
					<split pos="left">
						<output> -0.04927734285593033 </output>
					</split>
					<split pos="right">
						<output> 0.6275057196617126 </output>
					</split>
				</split>
			</split>
		</split>
	</tree>
	<tree id="49" weight="0.1">
		<split>
			<feature> 130 </feature>
			<threshold> 0.7109375 </threshold>
			<split pos="left">
				<feature> 140 </feature>
				<threshold> 0.40605503 </threshold>
				<split pos="left">
					<feature> 55 </feature>
					<threshold> 0.56584877 </threshold>
					<split pos="left">
						<feature> 158 </feature>
						<threshold> 30.0 </threshold>
						<split pos="left">
							<feature> 45 </feature>
							<threshold> 0.53333336 </threshold>
							<split pos="left">
								<output> -0.6585180163383484 </output>
							</split>
							<split pos="right">
								<output> 0.3062022626399994 </output>
							</split>
						</split>
						<split pos="right">
							<output> -2.5562591552734375 </output>
						</split>
					</split>
					<split pos="right">
						<output> 0.7362101078033447 </output>
					</split>
				</split>
				<split pos="right">
					<feature> 120 </feature>
					<threshold> 0.66796875 </threshold>
					<split pos="left">
						<feature> 151 </feature>
						<threshold> 0.93752 </threshold>
						<split pos="left">
							<feature> 126 </feature>
							<threshold> 0.84765625 </threshold>
							<split pos="left">
								<output> 0.4156040549278259 </output>
							</split>
							<split pos="right">
								<output> 1.0941792726516724 </output>
							</split>
						</split>
						<split pos="right">
							<output> 1.0440014600753784 </output>
						</split>
					</split>
					<split pos="right">
						<output> -0.22501535713672638 </output>
					</split>
				</split>
			</split>
			<split pos="right">
				<feature> 149 </feature>
				<threshold> 1.0 </threshold>
				<split pos="left">
					<output> -0.05776794254779816 </output>
				</split>
				<split pos="right">
					<output> 0.5649662017822266 </output>
				</split>
			</split>
		</split>
	</tree>
	<tree id="50" weight="0.1">
		<split>
			<feature> 132 </feature>
			<threshold> 0.82421875 </threshold>
			<split pos="left">
				<feature> 130 </feature>
				<threshold> 0.796875 </threshold>
				<split pos="left">
					<feature> 130 </feature>
					<threshold> 0.78125 </threshold>
					<split pos="left">
						<feature> 132 </feature>
						<threshold> 0.8125 </threshold>
						<split pos="left">
							<feature> 118 </feature>
							<threshold> 0.3125 </threshold>
							<split pos="left">
								<output> 0.4566272795200348 </output>
							</split>
							<split pos="right">
								<feature> 137 </feature>
								<threshold> 0.14453125 </threshold>
								<split pos="left">
									<output> 0.29311734437942505 </output>
								</split>
								<split pos="right">
									<feature> 141 </feature>
									<threshold> 0.31171882 </threshold>
									<split pos="left">
										<output> -0.5748488903045654 </output>
									</split>
									<split pos="right">
										<feature> 130 </feature>
										<threshold> 0.640625 </threshold>
										<split pos="left">
											<feature> 130 </feature>
											<threshold> 0.6328125 </threshold>
											<split pos="left">
												<output> -0.03720990940928459 </output>
											</split>
											<split pos="right">
												<output> 1.0884279012680054 </output>
											</split>
										</split>
										<split pos="right">
											<output> -0.7517720460891724 </output>
										</split>
									</split>
								</split>
							</split>
						</split>
						<split pos="right">
							<output> -1.8742672204971313 </output>
						</split>
					</split>
					<split pos="right">
						<output> 0.8137751817703247 </output>
					</split>
				</split>
				<split pos="right">
					<output> -1.3348928689956665 </output>
				</split>
			</split>
			<split pos="right">
				<output> 0.2138325721025467 </output>
			</split>
		</split>
	</tree>
	<tree id="51" weight="0.1">
		<split>
			<feature> 130 </feature>
			<threshold> 0.7109375 </threshold>
			<split pos="left">
				<feature> 130 </feature>
				<threshold> 0.68359375 </threshold>
				<split pos="left">
					<feature> 130 </feature>
					<threshold> 0.66015625 </threshold>
					<split pos="left">
						<feature> 130 </feature>
						<threshold> 0.64453125 </threshold>
						<split pos="left">
							<feature> 130 </feature>
							<threshold> 0.6328125 </threshold>
							<split pos="left">
								<feature> 132 </feature>
								<threshold> 0.80859375 </threshold>
								<split pos="left">
									<feature> 142 </feature>
									<threshold> -1.1536433 </threshold>
									<split pos="left">
										<feature> 137 </feature>
										<threshold> 0.07421875 </threshold>
										<split pos="left">
											<output> 0.466974139213562 </output>
										</split>
										<split pos="right">
											<feature> 117 </feature>
											<threshold> 0.3125 </threshold>
											<split pos="left">
												<output> -0.7826104164123535 </output>
											</split>
											<split pos="right">
												<output> 0.35816437005996704 </output>
											</split>
										</split>
									</split>
									<split pos="right">
										<output> -0.40394583344459534 </output>
									</split>
								</split>
								<split pos="right">
									<output> -249.31692504882812 </output>
								</split>
							</split>
							<split pos="right">
								<output> 1.0433629751205444 </output>
							</split>
						</split>
						<split pos="right">
							<output> -4.841184616088867 </output>
						</split>
					</split>
					<split pos="right">
						<output> 0.5782614350318909 </output>
					</split>
				</split>
				<split pos="right">
					<output> -1.0389577150344849 </output>
				</split>
			</split>
			<split pos="right">
				<output> 0.1858600229024887 </output>
			</split>
		</split>
	</tree>
	<tree id="52" weight="0.1">
		<split>
			<feature> 138 </feature>
			<threshold> 0.1875 </threshold>
			<split pos="left">
				<feature> 65 </feature>
				<threshold> 0.30078125 </threshold>
				<split pos="left">
					<output> -0.2182776927947998 </output>
				</split>
				<split pos="right">
					<output> 0.6048614978790283 </output>
				</split>
			</split>
			<split pos="right">
				<feature> 140 </feature>
				<threshold> 0.2994141 </threshold>
				<split pos="left">
					<output> -0.7513954043388367 </output>
				</split>
				<split pos="right">
					<feature> 118 </feature>
					<threshold> 0.26953125 </threshold>
					<split pos="left">
						<output> 0.7418076992034912 </output>
					</split>
					<split pos="right">
						<feature> 116 </feature>
						<threshold> 0.37890625 </threshold>
						<split pos="left">
							<output> -1.6327381134033203 </output>
						</split>
						<split pos="right">
							<feature> 142 </feature>
							<threshold> -1.1536433 </threshold>
							<split pos="left">
								<feature> 45 </feature>
								<threshold> 0.46666667 </threshold>
								<split pos="left">
									<output> 0.17914330959320068 </output>
								</split>
								<split pos="right">
									<output> 0.5529946684837341 </output>
								</split>
							</split>
							<split pos="right">
								<feature> 141 </feature>
								<threshold> 0.23378895 </threshold>
								<split pos="left">
									<output> 0.7812032699584961 </output>
								</split>
								<split pos="right">
									<feature> 132 </feature>
									<threshold> 0.62109375 </threshold>
									<split pos="left">
										<output> -0.44192761182785034 </output>
									</split>
									<split pos="right">
										<output> -0.5984044075012207 </output>
									</split>
								</split>
							</split>
						</split>
					</split>
				</split>
			</split>
		</split>
	</tree>
	<tree id="53" weight="0.1">
		<split>
			<feature> 138 </feature>
			<threshold> 0.1875 </threshold>
			<split pos="left">
				<feature> 65 </feature>
				<threshold> 0.30078125 </threshold>
				<split pos="left">
					<output> -0.18572062253952026 </output>
				</split>
				<split pos="right">
					<output> 0.5689908862113953 </output>
				</split>
			</split>
			<split pos="right">
				<feature> 140 </feature>
				<threshold> 0.2994141 </threshold>
				<split pos="left">
					<output> -0.6465042233467102 </output>
				</split>
				<split pos="right">
					<feature> 118 </feature>
					<threshold> 0.26953125 </threshold>
					<split pos="left">
						<output> 0.698147714138031 </output>
					</split>
					<split pos="right">
						<feature> 46 </feature>
						<threshold> 0.7377778 </threshold>
						<split pos="left">
							<feature> 140 </feature>
							<threshold> 0.32812512 </threshold>
							<split pos="left">
								<output> 0.6823173761367798 </output>
							</split>
							<split pos="right">
								<feature> 140 </feature>
								<threshold> 0.3322267 </threshold>
								<split pos="left">
									<output> -4.475051403045654 </output>
								</split>
								<split pos="right">
									<feature> 141 </feature>
									<threshold> 0.23378895 </threshold>
									<split pos="left">
										<output> 0.9019526243209839 </output>
									</split>
									<split pos="right">
										<feature> 142 </feature>
										<threshold> -1.1927059 </threshold>
										<split pos="left">
											<output> 0.5076475739479065 </output>
										</split>
										<split pos="right">
											<output> 0.010677638463675976 </output>
										</split>
									</split>
								</split>
							</split>
						</split>
						<split pos="right">
							<output> -0.40735313296318054 </output>
						</split>
					</split>
				</split>
			</split>
		</split>
	</tree>
	<tree id="54" weight="0.1">
		<split>
			<feature> 45 </feature>
			<threshold> 0.5555556 </threshold>
			<split pos="left">
				<feature> 140 </feature>
				<threshold> 0.43066448 </threshold>
				<split pos="left">
					<output> -0.3322770297527313 </output>
				</split>
				<split pos="right">
					<feature> 130 </feature>
					<threshold> 0.97265625 </threshold>
					<split pos="left">
						<feature> 118 </feature>
						<threshold> 0.26953125 </threshold>
						<split pos="left">
							<output> 0.7105513215065002 </output>
						</split>
						<split pos="right">
							<feature> 132 </feature>
							<threshold> 0.9296875 </threshold>
							<split pos="left">
								<feature> 132 </feature>
								<threshold> 0.9140625 </threshold>
								<split pos="left">
									<feature> 132 </feature>
									<threshold> 0.8359375 </threshold>
									<split pos="left">
										<feature> 130 </feature>
										<threshold> 0.61328125 </threshold>
										<split pos="left">
											<output> -0.10787854343652725 </output>
										</split>
										<split pos="right">
											<output> -0.9185919165611267 </output>
										</split>
									</split>
									<split pos="right">
										<output> 0.6188309192657471 </output>
									</split>
								</split>
								<split pos="right">
									<output> -4.922857761383057 </output>
								</split>
							</split>
							<split pos="right">
								<output> 0.6270694732666016 </output>
							</split>
						</split>
					</split>
					<split pos="right">
						<output> -1.5198957920074463 </output>
					</split>
				</split>
			</split>
			<split pos="right">
				<feature> 141 </feature>
				<threshold> 0.18457024 </threshold>
