## LambdaMART
## No. of trees = 1000
## No. of leaves = 10
## No. of threshold candidates = 256
## Learning rate = 0.1
## Stop early = 100

<ensemble>
	<tree id="1" weight="0.1">
		<split>
			<feature> 130 </feature>
			<threshold> 0.625 </threshold>
			<split pos="left">
				<feature> 130 </feature>
				<threshold> 0.0859375 </threshold>
				<split pos="left">
					<feature> 141 </feature>
					<threshold> 0.13945308 </threshold>
					<split pos="left">
						<feature> 148 </feature>
						<threshold> 8.0 </threshold>
						<split pos="left">
							<output> 0.06467324495315552 </output>
						</split>
						<split pos="right">
							<feature> 158 </feature>
							<threshold> 9.0 </threshold>
							<split pos="left">
								<output> 2.0 </output>
							</split>
							<split pos="right">
								<output> -1.8763545751571655 </output>
							</split>
						</split>
					</split>
					<split pos="right">
						<output> -0.8368759155273438 </output>
					</split>
				</split>
				<split pos="right">
					<output> 1.6092534065246582 </output>
				</split>
			</split>
			<split pos="right">
				<feature> 150 </feature>
				<threshold> 0.2 </threshold>
				<split pos="left">
					<feature> 61 </feature>
					<threshold> 0.95703125 </threshold>
					<split pos="left">
						<feature> 142 </feature>
						<threshold> -1.3229146 </threshold>
						<split pos="left">
							<feature> 158 </feature>
							<threshold> 18.0 </threshold>
							<split pos="left">
								<output> 1.8795428276062012 </output>
							</split>
							<split pos="right">
								<output> 1.9874879121780396 </output>
							</split>
						</split>
						<split pos="right">
							<output> 1.8972059488296509 </output>
						</split>
					</split>
					<split pos="right">
						<output> 2.0 </output>
					</split>
				</split>
				<split pos="right">
					<output> 1.9009755849838257 </output>
				</split>
			</split>
		</split>
	</tree>
	<tree id="2" weight="0.1">
		<split>
			<feature> 130 </feature>
			<threshold> 0.625 </threshold>
			<split pos="left">
				<feature> 130 </feature>
				<threshold> 0.0859375 </threshold>
				<split pos="left">
					<output> -1.5760682821273804 </output>
				</split>
				<split pos="right">
					<feature> 148 </feature>
					<threshold> 10.0 </threshold>
					<split pos="left">
						<output> 1.5386672019958496 </output>
					</split>
					<split pos="right">
						<output> 1.7641785144805908 </output>
					</split>
				</split>
			</split>
			<split pos="right">
				<feature> 148 </feature>
				<threshold> 4.0 </threshold>
				<split pos="left">
					<output> 1.6884757280349731 </output>
				</split>
				<split pos="right">
					<feature> 62 </feature>
					<threshold> 0.63671875 </threshold>
					<split pos="left">
						<feature> 48 </feature>
						<threshold> 0.78944486 </threshold>
						<split pos="left">
							<feature> 155 </feature>
							<threshold> 0.04296875 </threshold>
							<split pos="left">
								<feature> 154 </feature>
								<threshold> 0.8039763 </threshold>
								<split pos="left">
									<feature> 134 </feature>
									<threshold> 0.296875 </threshold>
									<split pos="left">
										<output> 1.703218698501587 </output>
									</split>
									<split pos="right">
										<output> 1.7481892108917236 </output>
									</split>
								</split>
								<split pos="right">
									<output> 1.7439501285552979 </output>
								</split>
							</split>
							<split pos="right">
								<output> 1.7264196872711182 </output>
							</split>
						</split>
						<split pos="right">
							<output> 1.6099343299865723 </output>
						</split>
					</split>
					<split pos="right">
						<output> 1.7511461973190308 </output>
					</split>
				</split>
			</split>
		</split>
	</tree>
	<tree id="3" weight="0.1">
		<split>
			<feature> 130 </feature>
			<threshold> 0.625 </threshold>
			<split pos="left">
				<feature> 130 </feature>
				<threshold> 0.0859375 </threshold>
				<split pos="left">
					<output> -1.383047342300415 </output>
				</split>
				<split pos="right">
					<output> 1.3376208543777466 </output>
				</split>
			</split>
			<split pos="right">
				<feature> 148 </feature>
				<threshold> 4.0 </threshold>
				<split pos="left">
					<output> 1.4737313985824585 </output>
				</split>
				<split pos="right">
					<feature> 48 </feature>
					<threshold> 0.78944486 </threshold>
					<split pos="left">
						<feature> 115 </feature>
						<threshold> 0.26953125 </threshold>
						<split pos="left">
							<feature> 102 </feature>
							<threshold> 0.37109375 </threshold>
							<split pos="left">
								<output> 1.5154497623443604 </output>
							</split>
							<split pos="right">
								<output> 1.5374864339828491 </output>
							</split>
						</split>
						<split pos="right">
							<feature> 119 </feature>
							<threshold> 0.73046875 </threshold>
							<split pos="left">
								<feature> 142 </feature>
								<threshold> -1.3229146 </threshold>
								<split pos="left">
									<output> 1.5341778993606567 </output>
								</split>
								<split pos="right">
									<output> 1.4484450817108154 </output>
								</split>
							</split>
							<split pos="right">
								<feature> 86 </feature>
								<threshold> 0.20117188 </threshold>
								<split pos="left">
									<output> 1.4891945123672485 </output>
								</split>
								<split pos="right">
									<output> 1.5447430610656738 </output>
								</split>
							</split>
						</split>
					</split>
					<split pos="right">
						<output> 1.4018679857254028 </output>
					</split>
				</split>
			</split>
		</split>
	</tree>
	<tree id="4" weight="0.1">
		<split>
			<feature> 130 </feature>
			<threshold> 0.625 </threshold>
			<split pos="left">
				<feature> 130 </feature>
				<threshold> 0.0859375 </threshold>
				<split pos="left">
					<output> -1.2427146434783936 </output>
				</split>
				<split pos="right">
					<output> 1.1801725625991821 </output>
				</split>
			</split>
			<split pos="right">
				<feature> 148 </feature>
				<threshold> 4.0 </threshold>
				<split pos="left">
					<output> 1.3310571908950806 </output>
				</split>
				<split pos="right">
					<feature> 48 </feature>
					<threshold> 0.78944486 </threshold>
					<split pos="left">
						<feature> 139 </feature>
						<threshold> 0.15585932 </threshold>
						<split pos="left">
							<feature> 102 </feature>
							<threshold> 0.37109375 </threshold>
							<split pos="left">
								<output> 1.379565954208374 </output>
							</split>
							<split pos="right">
								<output> 1.4000747203826904 </output>
							</split>
						</split>
						<split pos="right">
							<feature> 153 </feature>
							<threshold> 0.53023684 </threshold>
							<split pos="left">
								<feature> 125 </feature>
								<threshold> 0.59375 </threshold>
								<split pos="left">
									<output> 1.338459849357605 </output>
								</split>
								<split pos="right">
									<feature> 93 </feature>
									<threshold> 0.43359375 </threshold>
									<split pos="left">
										<output> 1.4031354188919067 </output>
									</split>
									<split pos="right">
										<output> 1.3600691556930542 </output>
									</split>
								</split>
							</split>
							<split pos="right">
								<output> 1.4057248830795288 </output>
							</split>
						</split>
					</split>
					<split pos="right">
						<output> 1.245721697807312 </output>
					</split>
				</split>
			</split>
		</split>
	</tree>
	<tree id="5" weight="0.1">
		<split>
			<feature> 130 </feature>
			<threshold> 0.625 </threshold>
			<split pos="left">
				<feature> 130 </feature>
				<threshold> 0.0859375 </threshold>
				<split pos="left">
					<output> -1.135836124420166 </output>
				</split>
				<split pos="right">
					<output> 1.0591398477554321 </output>
				</split>
			</split>
			<split pos="right">
				<feature> 148 </feature>
				<threshold> 4.0 </threshold>
				<split pos="left">
					<output> 1.2284132242202759 </output>
				</split>
				<split pos="right">
					<feature> 48 </feature>
					<threshold> 0.78944486 </threshold>
					<split pos="left">
						<feature> 139 </feature>
						<threshold> 0.15585932 </threshold>
						<split pos="left">
							<feature> 102 </feature>
							<threshold> 0.37109375 </threshold>
							<split pos="left">
								<output> 1.281371831893921 </output>
							</split>
							<split pos="right">
								<output> 1.304749608039856 </output>
							</split>
						</split>
						<split pos="right">
							<feature> 151 </feature>
							<threshold> 0.53023684 </threshold>
							<split pos="left">
								<feature> 125 </feature>
								<threshold> 0.59375 </threshold>
								<split pos="left">
									<output> 1.2336921691894531 </output>
								</split>
								<split pos="right">
									<feature> 93 </feature>
									<threshold> 0.43359375 </threshold>
									<split pos="left">
										<output> 1.3091129064559937 </output>
									</split>
									<split pos="right">
										<output> 1.258155345916748 </output>
									</split>
								</split>
							</split>
							<split pos="right">
								<output> 1.3096747398376465 </output>
							</split>
						</split>
					</split>
					<split pos="right">
						<output> 1.13358736038208 </output>
					</split>
				</split>
			</split>
		</split>
	</tree>
	<tree id="6" weight="0.1">
		<split>
			<feature> 130 </feature>
			<threshold> 0.625 </threshold>
			<split pos="left">
				<feature> 130 </feature>
				<threshold> 0.0859375 </threshold>
				<split pos="left">
					<output> -1.0502272844314575 </output>
				</split>
				<split pos="right">
					<output> 0.9589114189147949 </output>
				</split>
			</split>
			<split pos="right">
				<feature> 148 </feature>
				<threshold> 4.0 </threshold>
				<split pos="left">
					<output> 1.149657964706421 </output>
				</split>
				<split pos="right">
					<feature> 48 </feature>
					<threshold> 0.78944486 </threshold>
					<split pos="left">
						<feature> 139 </feature>
						<threshold> 0.15585932 </threshold>
						<split pos="left">
							<feature> 102 </feature>
							<threshold> 0.37109375 </threshold>
							<split pos="left">
								<output> 1.2092211246490479 </output>
							</split>
							<split pos="right">
								<output> 1.2359344959259033 </output>
							</split>
						</split>
						<split pos="right">
							<feature> 153 </feature>
							<threshold> 0.53023684 </threshold>
							<split pos="left">
								<feature> 125 </feature>
								<threshold> 0.59375 </threshold>
								<split pos="left">
									<output> 1.1545188426971436 </output>
								</split>
								<split pos="right">
									<feature> 93 </feature>
									<threshold> 0.43359375 </threshold>
									<split pos="left">
										<output> 1.241033673286438 </output>
									</split>
									<split pos="right">
										<output> 1.183207631111145 </output>
									</split>
								</split>
							</split>
							<split pos="right">
								<output> 1.2419217824935913 </output>
							</split>
						</split>
					</split>
					<split pos="right">
						<output> 1.0425735712051392 </output>
					</split>
				</split>
			</split>
		</split>
	</tree>
	<tree id="7" weight="0.1">
		<split>
			<feature> 130 </feature>
			<threshold> 0.625 </threshold>
			<split pos="left">
				<feature> 130 </feature>
				<threshold> 0.0859375 </threshold>
				<split pos="left">
					<output> -0.9773166179656982 </output>
				</split>
				<split pos="right">
					<output> 0.8705289363861084 </output>
				</split>
			</split>
			<split pos="right">
				<feature> 148 </feature>
				<threshold> 4.0 </threshold>
				<split pos="left">
					<output> 1.0857441425323486 </output>
				</split>
				<split pos="right">
					<feature> 48 </feature>
					<threshold> 0.78944486 </threshold>
					<split pos="left">
						<feature> 139 </feature>
						<threshold> 0.15585932 </threshold>
						<split pos="left">
							<feature> 102 </feature>
							<threshold> 0.37109375 </threshold>
							<split pos="left">
								<output> 1.1535886526107788 </output>
							</split>
							<split pos="right">
								<output> 1.1844887733459473 </output>
							</split>
						</split>
						<split pos="right">
							<feature> 153 </feature>
							<threshold> 0.53023684 </threshold>
							<split pos="left">
								<feature> 125 </feature>
								<threshold> 0.59375 </threshold>
								<split pos="left">
									<output> 1.0912374258041382 </output>
								</split>
								<split pos="right">
									<feature> 93 </feature>
									<threshold> 0.43359375 </threshold>
									<split pos="left">
										<output> 1.1904717683792114 </output>
									</split>
									<split pos="right">
										<output> 1.1240938901901245 </output>
									</split>
								</split>
							</split>
							<split pos="right">
								<output> 1.1912654638290405 </output>
							</split>
						</split>
					</split>
					<split pos="right">
						<output> 0.9642259478569031 </output>
					</split>
				</split>
			</split>
		</split>
	</tree>
	<tree id="8" weight="0.1">
		<split>
			<feature> 130 </feature>
			<threshold> 0.625 </threshold>
			<split pos="left">
				<feature> 130 </feature>
				<threshold> 0.21484375 </threshold>
				<split pos="left">
					<output> -0.8037301301956177 </output>
				</split>
				<split pos="right">
					<output> 0.8639667630195618 </output>
				</split>
			</split>
			<split pos="right">
				<feature> 148 </feature>
				<threshold> 4.0 </threshold>
				<split pos="left">
					<output> 1.0311936140060425 </output>
				</split>
				<split pos="right">
					<feature> 48 </feature>
					<threshold> 0.78944486 </threshold>
					<split pos="left">
						<feature> 139 </feature>
						<threshold> 0.15585932 </threshold>
						<split pos="left">
							<feature> 102 </feature>
							<threshold> 0.37109375 </threshold>
							<split pos="left">
								<output> 1.1089332103729248 </output>
							</split>
							<split pos="right">
								<output> 1.1449013948440552 </output>
							</split>
						</split>
						<split pos="right">
							<feature> 151 </feature>
							<threshold> 0.53023684 </threshold>
							<split pos="left">
								<feature> 125 </feature>
								<threshold> 0.59375 </threshold>
								<split pos="left">
									<output> 1.0361926555633545 </output>
								</split>
								<split pos="right">
									<feature> 93 </feature>
									<threshold> 0.43359375 </threshold>
									<split pos="left">
										<output> 1.1519230604171753 </output>
									</split>
									<split pos="right">
										<output> 1.0760960578918457 </output>
									</split>
								</split>
							</split>
							<split pos="right">
								<output> 1.1526850461959839 </output>
							</split>
						</split>
					</split>
					<split pos="right">
						<output> 0.8932135105133057 </output>
					</split>
				</split>
			</split>
		</split>
	</tree>
	<tree id="9" weight="0.1">
		<split>
			<feature> 130 </feature>
			<threshold> 0.625 </threshold>
			<split pos="left">
				<feature> 130 </feature>
				<threshold> 0.34375 </threshold>
				<split pos="left">
					<output> -0.7103219032287598 </output>
				</split>
				<split pos="right">
					<output> 0.8931918740272522 </output>
				</split>
			</split>
			<split pos="right">
				<feature> 148 </feature>
				<threshold> 4.0 </threshold>
				<split pos="left">
					<output> 0.984333336353302 </output>
				</split>
				<split pos="right">
					<feature> 48 </feature>
					<threshold> 0.78944486 </threshold>
					<split pos="left">
						<feature> 139 </feature>
						<threshold> 0.15585932 </threshold>
						<split pos="left">
							<feature> 102 </feature>
							<threshold> 0.37109375 </threshold>
							<split pos="left">
								<output> 1.0732821226119995 </output>
							</split>
							<split pos="right">
								<output> 1.1147915124893188 </output>
							</split>
						</split>
						<split pos="right">
							<feature> 151 </feature>
							<threshold> 0.53023684 </threshold>
							<split pos="left">
								<feature> 125 </feature>
								<threshold> 0.59375 </threshold>
								<split pos="left">
									<output> 0.9902893304824829 </output>
								</split>
								<split pos="right">
									<feature> 93 </feature>
									<threshold> 0.43359375 </threshold>
									<split pos="left">
										<output> 1.1229227781295776 </output>
									</split>
									<split pos="right">
										<output> 1.0355334281921387 </output>
									</split>
								</split>
							</split>
							<split pos="right">
								<output> 1.1237839460372925 </output>
							</split>
						</split>
					</split>
					<split pos="right">
						<output> 0.8298086524009705 </output>
					</split>
				</split>
			</split>
		</split>
	</tree>
	<tree id="10" weight="0.1">
		<split>
			<feature> 130 </feature>
			<threshold> 0.625 </threshold>
			<split pos="left">
				<feature> 130 </feature>
				<threshold> 0.34375 </threshold>
				<split pos="left">
					<feature> 130 </feature>
					<threshold> 0.0859375 </threshold>
					<split pos="left">
						<output> -0.8207619786262512 </output>
					</split>
					<split pos="right">
						<output> 0.6356825232505798 </output>
					</split>
				</split>
				<split pos="right">
					<output> 0.8277190327644348 </output>
				</split>
			</split>
			<split pos="right">
				<feature> 148 </feature>
				<threshold> 4.0 </threshold>
				<split pos="left">
					<output> 0.9412732124328613 </output>
				</split>
				<split pos="right">
					<feature> 48 </feature>
					<threshold> 0.78944486 </threshold>
					<split pos="left">
						<feature> 139 </feature>
						<threshold> 0.15585932 </threshold>
						<split pos="left">
							<feature> 102 </feature>
							<threshold> 0.37109375 </threshold>
							<split pos="left">
								<output> 1.0427424907684326 </output>
							</split>
							<split pos="right">
								<output> 1.090564489364624 </output>
							</split>
						</split>
						<split pos="right">
							<feature> 151 </feature>
							<threshold> 0.53023684 </threshold>
							<split pos="left">
								<feature> 125 </feature>
								<threshold> 0.59375 </threshold>
								<split pos="left">
									<output> 0.9485172033309937 </output>
								</split>
								<split pos="right">
									<output> 1.066433072090149 </output>
								</split>
							</split>
							<split pos="right">
								<output> 1.1008636951446533 </output>
							</split>
						</split>
					</split>
					<split pos="right">
						<output> 0.7698261737823486 </output>
					</split>
				</split>
			</split>
		</split>
	</tree>
	<tree id="11" weight="0.1">
		<split>
			<feature> 130 </feature>
			<threshold> 0.625 </threshold>
			<split pos="left">
				<feature> 130 </feature>
				<threshold> 0.34375 </threshold>
				<split pos="left">
					<feature> 130 </feature>
					<threshold> 0.0859375 </threshold>
					<split pos="left">
						<output> -0.7650152444839478 </output>
					</split>
					<split pos="right">
						<output> 0.5567762851715088 </output>
					</split>
				</split>
				<split pos="right">
					<output> 0.7663953304290771 </output>
				</split>
			</split>
			<split pos="right">
				<feature> 148 </feature>
				<threshold> 4.0 </threshold>
				<split pos="left">
					<output> 0.8969961404800415 </output>
				</split>
				<split pos="right">
					<feature> 48 </feature>
					<threshold> 0.78944486 </threshold>
					<split pos="left">
						<feature> 139 </feature>
						<threshold> 0.15585932 </threshold>
						<split pos="left">
							<feature> 102 </feature>
							<threshold> 0.37109375 </threshold>
							<split pos="left">
								<output> 1.0130393505096436 </output>
							</split>
							<split pos="right">
								<output> 1.0688642263412476 </output>
							</split>
						</split>
						<split pos="right">
							<feature> 153 </feature>
							<threshold> 0.53023684 </threshold>
							<split pos="left">
								<feature> 125 </feature>
								<threshold> 0.59375 </threshold>
								<split pos="left">
									<output> 0.9047949910163879 </output>
								</split>
								<split pos="right">
									<output> 1.0406227111816406 </output>
								</split>
							</split>
							<split pos="right">
								<output> 1.0808643102645874 </output>
							</split>
						</split>
					</split>
					<split pos="right">
						<output> 0.7046539783477783 </output>
					</split>
				</split>
			</split>
		</split>
	</tree>
	<tree id="12" weight="0.1">
		<split>
			<feature> 130 </feature>
			<threshold> 0.625 </threshold>
			<split pos="left">
				<feature> 132 </feature>
				<threshold> 0.51953125 </threshold>
				<split pos="left">
					<feature> 137 </feature>
					<threshold> 0.203125 </threshold>
					<split pos="left">
						<output> 0.8232064843177795 </output>
					</split>
					<split pos="right">
						<output> -0.6805818676948547 </output>
					</split>
				</split>
				<split pos="right">
					<output> 0.9039274454116821 </output>
				</split>
			</split>
			<split pos="right">
				<feature> 148 </feature>
				<threshold> 4.0 </threshold>
				<split pos="left">
					<output> 0.8535099625587463 </output>
				</split>
				<split pos="right">
					<feature> 48 </feature>
					<threshold> 0.78944486 </threshold>
					<split pos="left">
						<feature> 151 </feature>
						<threshold> 0.53023684 </threshold>
						<split pos="left">
							<feature> 139 </feature>
							<threshold> 0.15585932 </threshold>
							<split pos="left">
								<feature> 102 </feature>
								<threshold> 0.37109375 </threshold>
								<split pos="left">
									<output> 0.9882178902626038 </output>
								</split>
								<split pos="right">
									<output> 1.049905776977539 </output>
								</split>
							</split>
							<split pos="right">
								<feature> 142 </feature>
								<threshold> -1.283852 </threshold>
								<split pos="left">
									<output> 1.0182057619094849 </output>
								</split>
								<split pos="right">
									<output> 0.7882439494132996 </output>
								</split>
							</split>
						</split>
						<split pos="right">
							<output> 1.0564508438110352 </output>
						</split>
					</split>
					<split pos="right">
						<output> 0.6398723125457764 </output>
					</split>
				</split>
			</split>
		</split>
	</tree>
	<tree id="13" weight="0.1">
		<split>
			<feature> 132 </feature>
			<threshold> 0.51953125 </threshold>
			<split pos="left">
				<feature> 137 </feature>
				<threshold> 0.203125 </threshold>
				<split pos="left">
					<feature> 152 </feature>
					<threshold> 0.71082467 </threshold>
					<split pos="left">
						<feature> 95 </feature>
						<threshold> 0.8828125 </threshold>
						<split pos="left">
							<output> 1.2702202796936035 </output>
						</split>
						<split pos="right">
							<output> 1.867220401763916 </output>
						</split>
					</split>
					<split pos="right">
						<output> 1.9512977600097656 </output>
					</split>
				</split>
				<split pos="right">
					<output> -0.8347030878067017 </output>
				</split>
			</split>
			<split pos="right">
				<feature> 148 </feature>
				<threshold> 7.0 </threshold>
				<split pos="left">
					<feature> 148 </feature>
					<threshold> 4.0 </threshold>
					<split pos="left">
						<output> 0.8747174143791199 </output>
					</split>
					<split pos="right">
						<feature> 48 </feature>
						<threshold> 0.79333377 </threshold>
						<split pos="left">
							<feature> 142 </feature>
							<threshold> -1.3098937 </threshold>
							<split pos="left">
								<feature> 132 </feature>
								<threshold> 0.8359375 </threshold>
								<split pos="left">
									<output> 1.296305775642395 </output>
								</split>
								<split pos="right">
									<output> 1.012514352798462 </output>
								</split>
							</split>
							<split pos="right">
								<output> 0.8930121064186096 </output>
							</split>
						</split>
						<split pos="right">
							<output> 0.5910407304763794 </output>
						</split>
					</split>
				</split>
				<split pos="right">
					<output> 1.2723788022994995 </output>
				</split>
			</split>
		</split>
	</tree>
	<tree id="14" weight="0.1">
		<split>
			<feature> 132 </feature>
			<threshold> 0.51953125 </threshold>
			<split pos="left">
				<feature> 137 </feature>
				<threshold> 0.203125 </threshold>
				<split pos="left">
					<feature> 153 </feature>
					<threshold> 0.71082467 </threshold>
					<split pos="left">
						<feature> 95 </feature>
						<threshold> 0.8828125 </threshold>
						<split pos="left">
							<feature> 135 </feature>
							<threshold> 0.55859375 </threshold>
							<split pos="left">
								<output> 1.0172375440597534 </output>
							</split>
							<split pos="right">
								<output> 1.7083396911621094 </output>
							</split>
						</split>
						<split pos="right">
							<output> 1.6606024503707886 </output>
						</split>
					</split>
					<split pos="right">
						<output> 1.7200260162353516 </output>
					</split>
				</split>
				<split pos="right">
					<output> -0.7870191931724548 </output>
				</split>
			</split>
			<split pos="right">
				<feature> 148 </feature>
				<threshold> 7.0 </threshold>
				<split pos="left">
					<feature> 148 </feature>
					<threshold> 4.0 </threshold>
					<split pos="left">
						<output> 0.8197952508926392 </output>
					</split>
					<split pos="right">
						<feature> 48 </feature>
						<threshold> 0.79333377 </threshold>
						<split pos="left">
							<feature> 142 </feature>
							<threshold> -1.3098937 </threshold>
							<split pos="left">
								<output> 1.1018882989883423 </output>
							</split>
							<split pos="right">
								<output> 0.8480211496353149 </output>
							</split>
						</split>
						<split pos="right">
							<output> 0.5278522968292236 </output>
						</split>
					</split>
				</split>
				<split pos="right">
					<output> 1.2115833759307861 </output>
				</split>
			</split>
		</split>
	</tree>
	<tree id="15" weight="0.1">
		<split>
			<feature> 132 </feature>
			<threshold> 0.51953125 </threshold>
			<split pos="left">
				<feature> 137 </feature>
				<threshold> 0.203125 </threshold>
				<split pos="left">
					<feature> 146 </feature>
					<threshold> 0.033854164 </threshold>
					<split pos="left">
						<feature> 95 </feature>
						<threshold> 0.8828125 </threshold>
						<split pos="left">
							<feature> 133 </feature>
							<threshold> 0.5 </threshold>
							<split pos="left">
								<output> 0.9069908261299133 </output>
							</split>
							<split pos="right">
								<output> 1.5548523664474487 </output>
							</split>
						</split>
						<split pos="right">
							<output> 1.517477035522461 </output>
						</split>
					</split>
					<split pos="right">
						<output> 1.5616604089736938 </output>
					</split>
				</split>
				<split pos="right">
					<output> -0.7275813817977905 </output>
				</split>
			</split>
			<split pos="right">
				<feature> 148 </feature>
				<threshold> 7.0 </threshold>
				<split pos="left">
					<feature> 148 </feature>
					<threshold> 4.0 </threshold>
					<split pos="left">
						<output> 0.7700538635253906 </output>
					</split>
					<split pos="right">
						<feature> 48 </feature>
						<threshold> 0.79333377 </threshold>
						<split pos="left">
							<feature> 142 </feature>
							<threshold> -1.3098937 </threshold>
							<split pos="left">
								<output> 1.0716519355773926 </output>
							</split>
							<split pos="right">
								<output> 0.8055745959281921 </output>
							</split>
						</split>
						<split pos="right">
							<output> 0.46414175629615784 </output>
						</split>
					</split>
				</split>
				<split pos="right">
					<output> 1.1563485860824585 </output>
				</split>
			</split>
		</split>
	</tree>
	<tree id="16" weight="0.1">
		<split>
			<feature> 132 </feature>
			<threshold> 0.51953125 </threshold>
			<split pos="left">
				<feature> 137 </feature>
				<threshold> 0.16796875 </threshold>
				<split pos="left">
					<feature> 152 </feature>
					<threshold> 0.71082467 </threshold>
					<split pos="left">
						<feature> 95 </feature>
						<threshold> 0.8828125 </threshold>
						<split pos="left">
							<feature> 133 </feature>
							<threshold> 0.5 </threshold>
							<split pos="left">
								<output> 0.8209850192070007 </output>
							</split>
							<split pos="right">
								<output> 1.4421888589859009 </output>
							</split>
						</split>
						<split pos="right">
							<output> 1.4143662452697754 </output>
						</split>
					</split>
					<split pos="right">
						<output> 1.453816294670105 </output>
					</split>
				</split>
				<split pos="right">
					<output> -0.6552910804748535 </output>
				</split>
			</split>
			<split pos="right">
				<feature> 148 </feature>
				<threshold> 7.0 </threshold>
				<split pos="left">
					<feature> 148 </feature>
					<threshold> 4.0 </threshold>
					<split pos="left">
						<output> 0.719285249710083 </output>
					</split>
					<split pos="right">
						<feature> 48 </feature>
						<threshold> 0.79333377 </threshold>
						<split pos="left">
							<feature> 142 </feature>
							<threshold> -1.3098937 </threshold>
							<split pos="left">
								<output> 1.0432236194610596 </output>
							</split>
							<split pos="right">
								<output> 0.7603110074996948 </output>
							</split>
						</split>
						<split pos="right">
							<output> 0.39159059524536133 </output>
						</split>
					</split>
				</split>
				<split pos="right">
					<output> 1.1047736406326294 </output>
				</split>
			</split>
		</split>
	</tree>
	<tree id="17" weight="0.1">
		<split>
			<feature> 132 </feature>
			<threshold> 0.51953125 </threshold>
			<split pos="left">
				<feature> 137 </feature>
				<threshold> 0.203125 </threshold>
				<split pos="left">
					<feature> 151 </feature>
					<threshold> 0.71082467 </threshold>
					<split pos="left">
						<feature> 95 </feature>
						<threshold> 0.8828125 </threshold>
						<split pos="left">
							<feature> 133 </feature>
							<threshold> 0.5 </threshold>
							<split pos="left">
								<output> 0.7268408536911011 </output>
							</split>
							<split pos="right">
								<output> 1.3608258962631226 </output>
							</split>
						</split>
						<split pos="right">
							<output> 1.3378913402557373 </output>
						</split>
					</split>
					<split pos="right">
						<output> 1.3708324432373047 </output>
					</split>
				</split>
				<split pos="right">
					<output> -0.6105287075042725 </output>
				</split>
			</split>
			<split pos="right">
				<feature> 148 </feature>
				<threshold> 7.0 </threshold>
				<split pos="left">
					<feature> 148 </feature>
					<threshold> 4.0 </threshold>
					<split pos="left">
						<output> 0.6724357008934021 </output>
					</split>
					<split pos="right">
						<feature> 48 </feature>
						<threshold> 0.79333377 </threshold>
						<split pos="left">
							<feature> 142 </feature>
							<threshold> -1.3098937 </threshold>
							<split pos="left">
								<output> 1.0071208477020264 </output>
							</split>
							<split pos="right">
								<output> 0.7144133448600769 </output>
							</split>
						</split>
						<split pos="right">
							<output> 0.34089425206184387 </output>
						</split>
					</split>
				</split>
				<split pos="right">
					<output> 1.0569283962249756 </output>
				</split>
			</split>
		</split>
	</tree>
	<tree id="18" weight="0.1">
		<split>
			<feature> 132 </feature>
			<threshold> 0.51953125 </threshold>
			<split pos="left">
				<feature> 137 </feature>
				<threshold> 0.203125 </threshold>
				<split pos="left">
					<feature> 151 </feature>
					<threshold> 0.71082467 </threshold>
					<split pos="left">
						<feature> 95 </feature>
						<threshold> 0.8828125 </threshold>
						<split pos="left">
							<feature> 133 </feature>
							<threshold> 0.5 </threshold>
							<split pos="left">
								<output> 0.6415734887123108 </output>
							</split>
							<split pos="right">
								<output> 1.2988401651382446 </output>
							</split>
						</split>
						<split pos="right">
							<output> 1.279125452041626 </output>
						</split>
					</split>
					<split pos="right">
						<output> 1.3056678771972656 </output>
					</split>
				</split>
				<split pos="right">
					<output> -0.5563725829124451 </output>
				</split>
			</split>
			<split pos="right">
				<feature> 148 </feature>
				<threshold> 7.0 </threshold>
				<split pos="left">
					<feature> 148 </feature>
					<threshold> 4.0 </threshold>
					<split pos="left">
						<output> 0.6207493543624878 </output>
					</split>
					<split pos="right">
						<feature> 48 </feature>
						<threshold> 0.79333377 </threshold>
						<split pos="left">
							<feature> 142 </feature>
							<threshold> -1.3229146 </threshold>
							<split pos="left">
								<output> 0.9877740144729614 </output>
							</split>
							<split pos="right">
								<output> 0.6617826223373413 </output>
							</split>
						</split>
						<split pos="right">
							<output> 0.28177422285079956 </output>
						</split>
					</split>
				</split>
				<split pos="right">
					<output> 1.0204132795333862 </output>
				</split>
			</split>
		</split>
	</tree>
	<tree id="19" weight="0.1">
		<split>
			<feature> 132 </feature>
			<threshold> 0.51953125 </threshold>
			<split pos="left">
				<feature> 137 </feature>
				<threshold> 0.203125 </threshold>
				<split pos="left">
					<feature> 151 </feature>
					<threshold> 0.71082467 </threshold>
					<split pos="left">
						<feature> 95 </feature>
						<threshold> 0.8828125 </threshold>
						<split pos="left">
							<feature> 135 </feature>
							<threshold> 0.55859375 </threshold>
							<split pos="left">
								<output> 0.5822819471359253 </output>
							</split>
							<split pos="right">
								<output> 1.2508924007415771 </output>
							</split>
						</split>
						<split pos="right">
							<output> 1.2334264516830444 </output>
						</split>
					</split>
					<split pos="right">
						<output> 1.2553472518920898 </output>
					</split>
				</split>
				<split pos="right">
					<output> -0.5133619904518127 </output>
				</split>
			</split>
			<split pos="right">
				<feature> 148 </feature>
				<threshold> 7.0 </threshold>
				<split pos="left">
					<feature> 134 </feature>
					<threshold> 0.30078125 </threshold>
					<split pos="left">
						<feature> 155 </feature>
						<threshold> 0.01953125 </threshold>
						<split pos="left">
							<output> 0.7288920283317566 </output>
						</split>
						<split pos="right">
							<output> 0.12041576206684113 </output>
						</split>
					</split>
					<split pos="right">
						<feature> 155 </feature>
						<threshold> 0.0625 </threshold>
						<split pos="left">
							<output> 0.9835348725318909 </output>
						</split>
						<split pos="right">
							<output> 0.8255287408828735 </output>
						</split>
					</split>
				</split>
				<split pos="right">
					<output> 0.9769980907440186 </output>
				</split>
			</split>
		</split>
	</tree>
	<tree id="20" weight="0.1">
		<split>
			<feature> 132 </feature>
			<threshold> 0.51953125 </threshold>
			<split pos="left">
				<feature> 137 </feature>
				<threshold> 0.16796875 </threshold>
				<split pos="left">
					<feature> 145 </feature>
					<threshold> 0.033854164 </threshold>
					<split pos="left">
						<feature> 95 </feature>
						<threshold> 0.8828125 </threshold>
						<split pos="left">
							<feature> 67 </feature>
							<threshold> 0.51953125 </threshold>
							<split pos="left">
								<output> 0.3796110153198242 </output>
							</split>
							<split pos="right">
								<output> 1.1942378282546997 </output>
							</split>
						</split>
						<split pos="right">
							<output> 1.1973111629486084 </output>
						</split>
					</split>
					<split pos="right">
						<output> 1.215080738067627 </output>
					</split>
				</split>
				<split pos="right">
					<output> -0.4680910110473633 </output>
				</split>
			</split>
			<split pos="right">
				<feature> 134 </feature>
				<threshold> 0.30078125 </threshold>
				<split pos="left">
					<feature> 155 </feature>
					<threshold> 0.01953125 </threshold>
					<split pos="left">
						<output> 0.6940736770629883 </output>
					</split>
					<split pos="right">
						<output> 0.12113998085260391 </output>
					</split>
				</split>
				<split pos="right">
					<feature> 155 </feature>
					<threshold> 0.01953125 </threshold>
					<split pos="left">
						<output> 1.2050338983535767 </output>
					</split>
					<split pos="right">
						<feature> 148 </feature>
						<threshold> 5.0 </threshold>
						<split pos="left">
							<output> 0.8757115602493286 </output>
						</split>
						<split pos="right">
							<output> 0.9544723033905029 </output>
						</split>
					</split>
				</split>
			</split>
		</split>
	</tree>
	<tree id="21" weight="0.1">
		<split>
			<feature> 132 </feature>
			<threshold> 0.51953125 </threshold>
			<split pos="left">
				<feature> 137 </feature>
				<threshold> 0.203125 </threshold>
				<split pos="left">
					<feature> 146 </feature>
					<threshold> 0.033854164 </threshold>
					<split pos="left">
						<feature> 95 </feature>
						<threshold> 0.8828125 </threshold>
						<split pos="left">
							<output> 0.5596492886543274 </output>
						</split>
						<split pos="right">
							<output> 1.1684527397155762 </output>
						</split>
					</split>
					<split pos="right">
						<output> 1.1877247095108032 </output>
					</split>
				</split>
				<split pos="right">
					<output> -0.4311770796775818 </output>
				</split>
			</split>
			<split pos="right">
				<feature> 134 </feature>
				<threshold> 0.30078125 </threshold>
				<split pos="left">
					<feature> 22 </feature>
					<threshold> 3.0 </threshold>
					<split pos="left">
						<feature> 155 </feature>
						<threshold> 0.01953125 </threshold>
						<split pos="left">
							<output> 0.6103301048278809 </output>
						</split>
						<split pos="right">
							<output> 0.042110323905944824 </output>
						</split>
					</split>
					<split pos="right">
						<output> 1.0983232259750366 </output>
					</split>
				</split>
				<split pos="right">
					<feature> 155 </feature>
					<threshold> 0.015625 </threshold>
					<split pos="left">
						<output> 1.1747972965240479 </output>
					</split>
					<split pos="right">
						<feature> 155 </feature>
						<threshold> 0.03515625 </threshold>
						<split pos="left">
							<output> 1.0521880388259888 </output>
						</split>
						<split pos="right">
							<output> 0.8185453414916992 </output>
						</split>
					</split>
				</split>
			</split>
		</split>
	</tree>
	<tree id="22" weight="0.1">
		<split>
			<feature> 132 </feature>
			<threshold> 0.51953125 </threshold>
			<split pos="left">
				<feature> 137 </feature>
				<threshold> 0.203125 </threshold>
				<split pos="left">
					<feature> 152 </feature>
					<threshold> 0.71082467 </threshold>
					<split pos="left">
						<feature> 95 </feature>
						<threshold> 0.8828125 </threshold>
						<split pos="left">
							<output> 0.4754094183444977 </output>
						</split>
						<split pos="right">
							<output> 1.1450780630111694 </output>
						</split>
					</split>
					<split pos="right">
						<output> 1.1608977317810059 </output>
					</split>
				</split>
				<split pos="right">
					<feature> 130 </feature>
					<threshold> 0.171875 </threshold>
					<split pos="left">
						<output> -0.4764152765274048 </output>
					</split>
					<split pos="right">
						<output> 0.4101078510284424 </output>
					</split>
				</split>
			</split>
			<split pos="right">
				<feature> 134 </feature>
				<threshold> 0.30078125 </threshold>
				<split pos="left">
					<feature> 22 </feature>
					<threshold> 3.0 </threshold>
					<split pos="left">
						<feature> 155 </feature>
						<threshold> 0.01953125 </threshold>
						<split pos="left">
							<output> 0.562375545501709 </output>
						</split>
						<split pos="right">
							<output> -0.03889518603682518 </output>
						</split>
					</split>
					<split pos="right">
						<output> 1.0773411989212036 </output>
					</split>
				</split>
				<split pos="right">
					<feature> 155 </feature>
					<threshold> 0.01953125 </threshold>
					<split pos="left">
						<output> 1.1497358083724976 </output>
					</split>
					<split pos="right">
						<output> 0.8512014150619507 </output>
					</split>
				</split>
			</split>
		</split>
	</tree>
	<tree id="23" weight="0.1">
		<split>
			<feature> 132 </feature>
			<threshold> 0.51953125 </threshold>
			<split pos="left">
				<feature> 137 </feature>
				<threshold> 0.2734375 </threshold>
				<split pos="left">
					<feature> 134 </feature>
					<threshold> 0.77734375 </threshold>
					<split pos="left">
						<output> 0.3969156742095947 </output>
					</split>
					<split pos="right">
						<output> 1.1577720642089844 </output>
					</split>
				</split>
				<split pos="right">
					<feature> 132 </feature>
					<threshold> 0.28125 </threshold>
					<split pos="left">
						<output> -0.7426857352256775 </output>
					</split>
					<split pos="right">
						<output> 1.321649193763733 </output>
					</split>
				</split>
			</split>
			<split pos="right">
				<feature> 134 </feature>
				<threshold> 0.30078125 </threshold>
				<split pos="left">
					<feature> 22 </feature>
					<threshold> 3.0 </threshold>
					<split pos="left">
						<feature> 155 </feature>
						<threshold> 0.01953125 </threshold>
						<split pos="left">
							<output> 0.510601818561554 </output>
						</split>
						<split pos="right">
							<output> -0.11005356907844543 </output>
						</split>
					</split>
					<split pos="right">
						<output> 1.062302589416504 </output>
					</split>
				</split>
				<split pos="right">
					<feature> 155 </feature>
					<threshold> 0.01171875 </threshold>
					<split pos="left">
						<output> 1.1278210878372192 </output>
					</split>
					<split pos="right">
						<feature> 155 </feature>
						<threshold> 0.03515625 </threshold>
						<split pos="left">
							<output> 1.0142807960510254 </output>
						</split>
						<split pos="right">
							<output> 0.7363924980163574 </output>
						</split>
					</split>
				</split>
			</split>
		</split>
	</tree>
	<tree id="24" weight="0.1">
		<split>
			<feature> 132 </feature>
			<threshold> 0.29296875 </threshold>
			<split pos="left">
				<output> -0.9257680773735046 </output>
			</split>
			<split pos="right">
				<feature> 155 </feature>
				<threshold> 0.01953125 </threshold>
				<split pos="left">
					<feature> 118 </feature>
					<threshold> 0.83984375 </threshold>
					<split pos="left">
						<feature> 102 </feature>
						<threshold> 0.578125 </threshold>
						<split pos="left">
							<output> 1.1056855916976929 </output>
						</split>
						<split pos="right">
							<feature> 132 </feature>
							<threshold> 0.546875 </threshold>
							<split pos="left">
								<output> 1.6647332906723022 </output>
							</split>
							<split pos="right">
								<output> 1.0405563116073608 </output>
							</split>
						</split>
					</split>
					<split pos="right">
						<output> 1.5628130435943604 </output>
					</split>
				</split>
				<split pos="right">
					<feature> 132 </feature>
					<threshold> 0.828125 </threshold>
					<split pos="left">
						<feature> 158 </feature>
						<threshold> 34.0 </threshold>
						<split pos="left">
							<feature> 142 </feature>
							<threshold> -1.2057267 </threshold>
							<split pos="left">
								<feature> 158 </feature>
								<threshold> 31.0 </threshold>
								<split pos="left">
									<output> 1.1649945974349976 </output>
								</split>
								<split pos="right">
									<output> 1.8090903759002686 </output>
								</split>
							</split>
							<split pos="right">
								<output> 0.21565067768096924 </output>
							</split>
						</split>
						<split pos="right">
							<output> -19.74380874633789 </output>
						</split>
					</split>
					<split pos="right">
						<output> 0.6072100400924683 </output>
					</split>
				</split>
			</split>
		</split>
	</tree>
	<tree id="25" weight="0.1">
		<split>
			<feature> 132 </feature>
			<threshold> 0.29296875 </threshold>
			<split pos="left">
				<output> -0.8554301261901855 </output>
			</split>
			<split pos="right">
				<feature> 61 </feature>
				<threshold> 0.796875 </threshold>
				<split pos="left">
					<feature> 155 </feature>
					<threshold> 0.015625 </threshold>
					<split pos="left">
						<feature> 102 </feature>
						<threshold> 0.578125 </threshold>
						<split pos="left">
							<output> 0.8843693733215332 </output>
						</split>
						<split pos="right">
							<feature> 44 </feature>
							<threshold> 0.2 </threshold>
							<split pos="left">
								<output> 1.550519585609436 </output>
							</split>
							<split pos="right">
								<output> 1.4116506576538086 </output>
							</split>
						</split>
					</split>
					<split pos="right">
						<feature> 142 </feature>
						<threshold> -1.2057267 </threshold>
						<split pos="left">
							<feature> 158 </feature>
							<threshold> 31.0 </threshold>
							<split pos="left">
								<feature> 145 </feature>
								<threshold> 0.1067708 </threshold>
								<split pos="left">
									<feature> 132 </feature>
									<threshold> 0.5546875 </threshold>
									<split pos="left">
										<output> 1.269423007965088 </output>
									</split>
									<split pos="right">
										<output> 0.6058413982391357 </output>
									</split>
								</split>
								<split pos="right">
									<output> 1.2548432350158691 </output>
								</split>
							</split>
							<split pos="right">
								<output> 1.561312198638916 </output>
							</split>
						</split>
						<split pos="right">
							<output> 0.017753487452864647 </output>
						</split>
					</split>
				</split>
				<split pos="right">
					<output> 1.3044610023498535 </output>
				</split>
			</split>
		</split>
	</tree>
	<tree id="26" weight="0.1">
		<split>
			<feature> 132 </feature>
			<threshold> 0.29296875 </threshold>
			<split pos="left">
				<output> -0.7858940958976746 </output>
			</split>
			<split pos="right">
				<feature> 61 </feature>
				<threshold> 0.95703125 </threshold>
				<split pos="left">
					<feature> 155 </feature>
					<threshold> 0.015625 </threshold>
					<split pos="left">
						<feature> 102 </feature>
						<threshold> 0.578125 </threshold>
						<split pos="left">
							<output> 0.8073126077651978 </output>
						</split>
						<split pos="right">
							<feature> 44 </feature>
							<threshold> 0.2 </threshold>
							<split pos="left">
								<output> 1.4423856735229492 </output>
							</split>
							<split pos="right">
								<feature> 132 </feature>
								<threshold> 0.3046875 </threshold>
								<split pos="left">
									<output> 1.4973491430282593 </output>
								</split>
								<split pos="right">
									<output> 1.2088176012039185 </output>
								</split>
							</split>
						</split>
					</split>
					<split pos="right">
						<feature> 61 </feature>
						<threshold> 0.796875 </threshold>
						<split pos="left">
							<feature> 142 </feature>
							<threshold> -1.2057267 </threshold>
							<split pos="left">
								<feature> 158 </feature>
								<threshold> 31.0 </threshold>
								<split pos="left">
									<output> 0.8541724681854248 </output>
								</split>
								<split pos="right">
									<output> 1.4496102333068848 </output>
								</split>
							</split>
							<split pos="right">
								<output> -0.0101466728374362 </output>
							</split>
						</split>
						<split pos="right">
							<output> 1.3375365734100342 </output>
						</split>
					</split>
				</split>
				<split pos="right">
					<output> 1.4224247932434082 </output>
				</split>
			</split>
		</split>
	</tree>
	<tree id="27" weight="0.1">
		<split>
			<feature> 132 </feature>
			<threshold> 0.29296875 </threshold>
			<split pos="left">
				<output> -0.7226861715316772 </output>
			</split>
			<split pos="right">
				<feature> 61 </feature>
				<threshold> 0.95703125 </threshold>
				<split pos="left">
					<feature> 155 </feature>
					<threshold> 0.015625 </threshold>
					<split pos="left">
						<feature> 102 </feature>
						<threshold> 0.578125 </threshold>
						<split pos="left">
							<output> 0.7376142740249634 </output>
						</split>
						<split pos="right">
							<feature> 44 </feature>
							<threshold> 0.2 </threshold>
							<split pos="left">
								<output> 1.3530726432800293 </output>
							</split>
							<split pos="right">
								<feature> 51 </feature>
								<threshold> 5.8315386E-4 </threshold>
								<split pos="left">
									<output> 1.1884517669677734 </output>
								</split>
								<split pos="right">
									<output> 1.3821306228637695 </output>
								</split>
							</split>
						</split>
					</split>
					<split pos="right">
						<feature> 150 </feature>
						<threshold> 0.18181819 </threshold>
						<split pos="left">
							<output> -1.2195794582366943 </output>
						</split>
						<split pos="right">
							<feature> 142 </feature>
							<threshold> -1.179685 </threshold>
							<split pos="left">
								<feature> 158 </feature>
								<threshold> 31.0 </threshold>
								<split pos="left">
									<output> 0.8230522871017456 </output>
								</split>
								<split pos="right">
									<output> 1.3649166822433472 </output>
								</split>
							</split>
							<split pos="right">
								<output> 0.08730118721723557 </output>
							</split>
						</split>
					</split>
				</split>
				<split pos="right">
					<output> 1.3471312522888184 </output>
				</split>
			</split>
		</split>
	</tree>
	<tree id="28" weight="0.1">
		<split>
			<feature> 132 </feature>
			<threshold> 0.29296875 </threshold>
			<split pos="left">
				<output> -0.6694822907447815 </output>
			</split>
			<split pos="right">
				<feature> 61 </feature>
				<threshold> 0.95703125 </threshold>
				<split pos="left">
					<feature> 50 </feature>
					<threshold> 0.0010448173 </threshold>
					<split pos="left">
						<feature> 149 </feature>
						<threshold> 1.0 </threshold>
						<split pos="left">
							<output> -0.41972246766090393 </output>
						</split>
						<split pos="right">
							<feature> 137 </feature>
							<threshold> 0.22265625 </threshold>
							<split pos="left">
								<output> 0.637904167175293 </output>
							</split>
							<split pos="right">
								<feature> 132 </feature>
								<threshold> 0.5546875 </threshold>
								<split pos="left">
									<feature> 158 </feature>
									<threshold> 31.0 </threshold>
									<split pos="left">
										<feature> 154 </feature>
										<threshold> 0.07052426 </threshold>
										<split pos="left">
											<output> 1.2731744050979614 </output>
										</split>
										<split pos="right">
											<feature> 63 </feature>
											<threshold> 0.94921875 </threshold>
											<split pos="left">
												<output> 1.1000679731369019 </output>
											</split>
											<split pos="right">
												<output> 1.3506485223770142 </output>
											</split>
										</split>
									</split>
									<split pos="right">
										<output> 1.2272441387176514 </output>
									</split>
								</split>
								<split pos="right">
									<output> 0.5330780744552612 </output>
								</split>
							</split>
						</split>
					</split>
					<split pos="right">
						<output> 1.1085081100463867 </output>
					</split>
				</split>
				<split pos="right">
					<output> 1.2780885696411133 </output>
				</split>
			</split>
		</split>
	</tree>
	<tree id="29" weight="0.1">
		<split>
			<feature> 132 </feature>
			<threshold> 0.28125 </threshold>
			<split pos="left">
				<output> -0.6302316784858704 </output>
			</split>
			<split pos="right">
				<feature> 61 </feature>
				<threshold> 0.95703125 </threshold>
				<split pos="left">
					<feature> 102 </feature>
					<threshold> 0.578125 </threshold>
					<split pos="left">
						<feature> 149 </feature>
						<threshold> 1.0 </threshold>
						<split pos="left">
							<output> -0.6434392333030701 </output>
						</split>
						<split pos="right">
							<feature> 116 </feature>
							<threshold> 0.2734375 </threshold>
							<split pos="left">
								<output> 0.8458788394927979 </output>
							</split>
							<split pos="right">
								<feature> 130 </feature>
								<threshold> 0.8203125 </threshold>
								<split pos="left">
									<feature> 52 </feature>
									<threshold> 0.46245486 </threshold>
									<split pos="left">
										<output> 0.7061316967010498 </output>
									</split>
									<split pos="right">
										<output> 1.2806645631790161 </output>
									</split>
								</split>
								<split pos="right">
									<output> 0.5547099709510803 </output>
								</split>
							</split>
						</split>
					</split>
					<split pos="right">
						<feature> 155 </feature>
						<threshold> 0.015625 </threshold>
						<split pos="left">
							<feature> 51 </feature>
							<threshold> 5.8315386E-4 </threshold>
							<split pos="left">
								<output> 1.124163269996643 </output>
							</split>
							<split pos="right">
								<output> 1.2640914916992188 </output>
							</split>
						</split>
						<split pos="right">
							<output> 0.8201878070831299 </output>
						</split>
					</split>
				</split>
				<split pos="right">
					<output> 1.2216025590896606 </output>
				</split>
			</split>
		</split>
	</tree>
	<tree id="30" weight="0.1">
		<split>
			<feature> 131 </feature>
			<threshold> 0.5859375 </threshold>
			<split pos="left">
				<feature> 137 </feature>
				<threshold> 0.28125 </threshold>
				<split pos="left">
					<feature> 135 </feature>
					<threshold> 0.5859375 </threshold>
					<split pos="left">
						<output> 0.3634231388568878 </output>
					</split>
					<split pos="right">
						<output> 1.3430705070495605 </output>
					</split>
				</split>
				<split pos="right">
					<output> -0.6959118247032166 </output>
				</split>
			</split>
			<split pos="right">
				<feature> 61 </feature>
				<threshold> 0.95703125 </threshold>
				<split pos="left">
					<feature> 51 </feature>
					<threshold> 5.8315386E-4 </threshold>
					<split pos="left">
						<feature> 120 </feature>
						<threshold> 0.5078125 </threshold>
						<split pos="left">
							<output> 0.7037508487701416 </output>
						</split>
						<split pos="right">
							<feature> 158 </feature>
							<threshold> 31.0 </threshold>
							<split pos="left">
								<feature> 150 </feature>
								<threshold> 0.16666667 </threshold>
								<split pos="left">
									<output> -1.1124379634857178 </output>
								</split>
								<split pos="right">
									<feature> 102 </feature>
									<threshold> 0.578125 </threshold>
									<split pos="left">
										<output> 0.5111194849014282 </output>
									</split>
									<split pos="right">
										<output> 0.9516981244087219 </output>
									</split>
								</split>
							</split>
							<split pos="right">
								<output> 1.0708074569702148 </output>
							</split>
						</split>
					</split>
					<split pos="right">
						<output> 1.006788730621338 </output>
					</split>
				</split>
				<split pos="right">
					<output> 1.1773303747177124 </output>
				</split>
			</split>
		</split>
	</tree>
	<tree id="31" weight="0.1">
		<split>
			<feature> 131 </feature>
			<threshold> 0.5859375 </threshold>
			<split pos="left">
				<feature> 132 </feature>
				<threshold> 0.3984375 </threshold>
				<split pos="left">
					<feature> 137 </feature>
					<threshold> 0.28125 </threshold>
					<split pos="left">
						<output> 0.5417275428771973 </output>
					</split>
					<split pos="right">
						<output> -0.6409517526626587 </output>
					</split>
				</split>
				<split pos="right">
					<output> -1.4496053457260132 </output>
				</split>
			</split>
			<split pos="right">
				<feature> 61 </feature>
				<threshold> 0.95703125 </threshold>
				<split pos="left">
					<feature> 51 </feature>
					<threshold> 5.8315386E-4 </threshold>
					<split pos="left">
						<feature> 120 </feature>
						<threshold> 0.5078125 </threshold>
						<split pos="left">
							<output> 0.7400222420692444 </output>
						</split>
						<split pos="right">
							<feature> 102 </feature>
							<threshold> 0.578125 </threshold>
							<split pos="left">
								<feature> 117 </feature>
								<threshold> 0.1328125 </threshold>
								<split pos="left">
									<output> -72.00520324707031 </output>
								</split>
								<split pos="right">
									<feature> 115 </feature>
									<threshold> 0.078125 </threshold>
									<split pos="left">
										<output> 1.241685152053833 </output>
									</split>
									<split pos="right">
										<output> 0.36513999104499817 </output>
									</split>
								</split>
							</split>
							<split pos="right">
								<output> 0.8975426554679871 </output>
							</split>
						</split>
					</split>
					<split pos="right">
						<output> 0.9580689668655396 </output>
					</split>
				</split>
				<split pos="right">
					<output> 1.136609673500061 </output>
				</split>
			</split>
		</split>
	</tree>
	<tree id="32" weight="0.1">
		<split>
			<feature> 132 </feature>
			<threshold> 0.28125 </threshold>
			<split pos="left">
				<feature> 137 </feature>
				<threshold> 0.28125 </threshold>
				<split pos="left">
					<output> 0.5419779419898987 </output>
				</split>
				<split pos="right">
					<output> -0.6231356859207153 </output>
				</split>
			</split>
			<split pos="right">
				<feature> 61 </feature>
				<threshold> 0.95703125 </threshold>
				<split pos="left">
					<feature> 130 </feature>
					<threshold> 0.21875 </threshold>
					<split pos="left">
						<feature> 117 </feature>
						<threshold> 0.2265625 </threshold>
						<split pos="left">
							<output> 1.064022183418274 </output>
						</split>
						<split pos="right">
							<feature> 132 </feature>
							<threshold> 0.62890625 </threshold>
							<split pos="left">
								<feature> 154 </feature>
								<threshold> 0.36672613 </threshold>
								<split pos="left">
									<feature> 90 </feature>
									<threshold> 0.578125 </threshold>
									<split pos="left">
										<output> 1.099127173423767 </output>
									</split>
									<split pos="right">
										<output> 1.1372432708740234 </output>
									</split>
								</split>
								<split pos="right">
									<output> 0.7815878391265869 </output>
								</split>
							</split>
							<split pos="right">
								<output> 0.9578035473823547 </output>
							</split>
						</split>
					</split>
					<split pos="right">
						<feature> 48 </feature>
						<threshold> 0.92166764 </threshold>
						<split pos="left">
							<output> -0.04517768695950508 </output>
						</split>
						<split pos="right">
							<output> -2.751821994781494 </output>
						</split>
					</split>
				</split>
				<split pos="right">
					<output> 1.0999785661697388 </output>
				</split>
			</split>
		</split>
	</tree>
	<tree id="33" weight="0.1">
		<split>
			<feature> 131 </feature>
			<threshold> 0.6015625 </threshold>
			<split pos="left">
				<feature> 130 </feature>
				<threshold> 0.46484375 </threshold>
				<split pos="left">
					<feature> 137 </feature>
					<threshold> 0.28125 </threshold>
					<split pos="left">
						<feature> 135 </feature>
						<threshold> 0.5859375 </threshold>
						<split pos="left">
							<output> 0.29372137784957886 </output>
						</split>
						<split pos="right">
							<output> 1.2666767835617065 </output>
						</split>
					</split>
					<split pos="right">
						<output> -0.5215423107147217 </output>
					</split>
				</split>
				<split pos="right">
					<output> -1.9922934770584106 </output>
				</split>
			</split>
			<split pos="right">
				<feature> 61 </feature>
				<threshold> 0.95703125 </threshold>
				<split pos="left">
					<feature> 51 </feature>
					<threshold> 5.8315386E-4 </threshold>
					<split pos="left">
						<feature> 158 </feature>
						<threshold> 34.0 </threshold>
						<split pos="left">
							<feature> 120 </feature>
							<threshold> 0.5078125 </threshold>
							<split pos="left">
								<output> 0.6567369103431702 </output>
							</split>
							<split pos="right">
								<feature> 130 </feature>
								<threshold> 0.109375 </threshold>
								<split pos="left">
									<output> 0.8343418836593628 </output>
								</split>
								<split pos="right">
									<output> -0.31816020607948303 </output>
								</split>
							</split>
						</split>
						<split pos="right">
							<output> 1.135929822921753 </output>
						</split>
					</split>
					<split pos="right">
						<output> 0.9000019431114197 </output>
					</split>
				</split>
				<split pos="right">
					<output> 1.0748341083526611 </output>
				</split>
			</split>
		</split>
	</tree>
	<tree id="34" weight="0.1">
		<split>
			<feature> 131 </feature>
			<threshold> 0.5859375 </threshold>
			<split pos="left">
				<feature> 132 </feature>
				<threshold> 0.3046875 </threshold>
				<split pos="left">
					<feature> 137 </feature>
					<threshold> 0.28125 </threshold>
					<split pos="left">
						<feature> 91 </feature>
						<threshold> 0.18359375 </threshold>
						<split pos="left">
							<output> -0.5736961960792542 </output>
						</split>
						<split pos="right">
							<output> 0.9801849722862244 </output>
						</split>
					</split>
					<split pos="right">
						<output> -0.5316794514656067 </output>
					</split>
				</split>
				<split pos="right">
					<output> -0.7132510542869568 </output>
				</split>
			</split>
			<split pos="right">
				<feature> 61 </feature>
				<threshold> 0.95703125 </threshold>
				<split pos="left">
					<feature> 51 </feature>
					<threshold> 5.8315386E-4 </threshold>
					<split pos="left">
						<feature> 130 </feature>
						<threshold> 0.109375 </threshold>
						<split pos="left">
							<feature> 117 </feature>
							<threshold> 0.19140625 </threshold>
							<split pos="left">
								<output> 1.0523426532745361 </output>
							</split>
							<split pos="right">
								<feature> 132 </feature>
								<threshold> 0.51953125 </threshold>
								<split pos="left">
									<output> 0.8544838428497314 </output>
								</split>
								<split pos="right">
									<output> 0.7987402677536011 </output>
								</split>
							</split>
						</split>
						<split pos="right">
							<output> -0.227208212018013 </output>
						</split>
					</split>
					<split pos="right">
						<output> 0.8445497155189514 </output>
					</split>
				</split>
				<split pos="right">
					<output> 1.0636943578720093 </output>
				</split>
			</split>
		</split>
	</tree>
	<tree id="35" weight="0.1">
		<split>
			<feature> 132 </feature>
			<threshold> 0.28125 </threshold>
			<split pos="left">
				<feature> 137 </feature>
				<threshold> 0.28125 </threshold>
				<split pos="left">
					<output> 0.4857816696166992 </output>
				</split>
				<split pos="right">
					<output> -0.5430532097816467 </output>
				</split>
			</split>
			<split pos="right">
				<feature> 61 </feature>
				<threshold> 0.95703125 </threshold>
				<split pos="left">
					<feature> 130 </feature>
					<threshold> 0.1484375 </threshold>
					<split pos="left">
						<feature> 117 </feature>
						<threshold> 0.22265625 </threshold>
						<split pos="left">
							<output> 1.0636646747589111 </output>
						</split>
						<split pos="right">
							<feature> 51 </feature>
							<threshold> 5.8315386E-4 </threshold>
							<split pos="left">
								<feature> 132 </feature>
								<threshold> 0.5546875 </threshold>
								<split pos="left">
									<feature> 155 </feature>
									<threshold> 0.00390625 </threshold>
									<split pos="left">
										<output> 1.095878005027771 </output>
									</split>
									<split pos="right">
										<output> 0.6993242502212524 </output>
									</split>
								</split>
								<split pos="right">
									<output> 0.8272889256477356 </output>
								</split>
							</split>
							<split pos="right">
								<output> 1.0395292043685913 </output>
							</split>
						</split>
					</split>
					<split pos="right">
						<feature> 102 </feature>
						<threshold> 0.26953125 </threshold>
						<split pos="left">
							<output> -1.185475468635559 </output>
						</split>
						<split pos="right">
							<output> 0.14766144752502441 </output>
						</split>
					</split>
				</split>
				<split pos="right">
					<output> 1.0395160913467407 </output>
				</split>
			</split>
		</split>
	</tree>
	<tree id="36" weight="0.1">
		<split>
			<feature> 131 </feature>
			<threshold> 0.5859375 </threshold>
			<split pos="left">
				<feature> 132 </feature>
				<threshold> 0.3046875 </threshold>
				<split pos="left">
					<feature> 137 </feature>
					<threshold> 0.28125 </threshold>
					<split pos="left">
						<output> 0.43351292610168457 </output>
					</split>
					<split pos="right">
						<output> -0.49335187673568726 </output>
					</split>
				</split>
				<split pos="right">
					<output> -0.6808311939239502 </output>
				</split>
			</split>
			<split pos="right">
				<feature> 61 </feature>
				<threshold> 0.95703125 </threshold>
				<split pos="left">
					<feature> 51 </feature>
					<threshold> 5.8315386E-4 </threshold>
					<split pos="left">
						<feature> 130 </feature>
						<threshold> 0.109375 </threshold>
						<split pos="left">
							<feature> 117 </feature>
							<threshold> 0.19140625 </threshold>
							<split pos="left">
								<output> 1.0530674457550049 </output>
							</split>
							<split pos="right">
								<feature> 132 </feature>
								<threshold> 0.51953125 </threshold>
								<split pos="left">
									<output> 0.7372058629989624 </output>
								</split>
								<split pos="right">
									<output> 0.7335389852523804 </output>
								</split>
							</split>
						</split>
						<split pos="right">
							<feature> 45 </feature>
							<threshold> 0.37777779 </threshold>
							<split pos="left">
								<output> -1.2321276664733887 </output>
							</split>
							<split pos="right">
								<output> 0.23536527156829834 </output>
							</split>
						</split>
					</split>
					<split pos="right">
						<output> 0.7821035981178284 </output>
					</split>
				</split>
				<split pos="right">
					<output> 1.0202486515045166 </output>
				</split>
			</split>
		</split>
	</tree>
	<tree id="37" weight="0.1">
		<split>
			<feature> 142 </feature>
			<threshold> -1.2187476 </threshold>
			<split pos="left">
				<feature> 134 </feature>
				<threshold> 0.75390625 </threshold>
				<split pos="left">
					<feature> 133 </feature>
					<threshold> 0.75 </threshold>
					<split pos="left">
						<feature> 45 </feature>
						<threshold> 0.3611111 </threshold>
						<split pos="left">
							<output> 0.2934446334838867 </output>
						</split>
						<split pos="right">
							<feature> 137 </feature>
							<threshold> 0.22265625 </threshold>
							<split pos="left">
								<output> 0.5133046507835388 </output>
							</split>
							<split pos="right">
								<feature> 150 </feature>
								<threshold> 0.16666667 </threshold>
								<split pos="left">
									<output> 1.1702466011047363 </output>
								</split>
								<split pos="right">
									<feature> 132 </feature>
									<threshold> 0.28125 </threshold>
									<split pos="left">
										<output> 3.100358486175537 </output>
									</split>
									<split pos="right">
										<output> 0.5850228071212769 </output>
									</split>
								</split>
							</split>
						</split>
					</split>
					<split pos="right">
						<output> -11.948015213012695 </output>
					</split>
				</split>
				<split pos="right">
					<output> 1.1325336694717407 </output>
				</split>
			</split>
			<split pos="right">
				<feature> 130 </feature>
				<threshold> 0.30078125 </threshold>
				<split pos="left">
					<feature> 130 </feature>
					<threshold> 0.23046875 </threshold>
					<split pos="left">
						<output> -0.5863834023475647 </output>
					</split>
					<split pos="right">
						<output> 0.685211718082428 </output>
					</split>
				</split>
				<split pos="right">
					<output> -0.5845154523849487 </output>
				</split>
			</split>
		</split>
	</tree>
	<tree id="38" weight="0.1">
		<split>
			<feature> 142 </feature>
			<threshold> -1.2187476 </threshold>
			<split pos="left">
				<feature> 134 </feature>
				<threshold> 0.75390625 </threshold>
				<split pos="left">
					<feature> 135 </feature>
					<threshold> 0.75 </threshold>
					<split pos="left">
						<feature> 45 </feature>
						<threshold> 0.3611111 </threshold>
						<split pos="left">
							<feature> 130 </feature>
							<threshold> 0.23046875 </threshold>
							<split pos="left">
								<output> 0.4214935898780823 </output>
							</split>
							<split pos="right">
								<output> -0.8597154021263123 </output>
							</split>
						</split>
						<split pos="right">
							<feature> 140 </feature>
							<threshold> 0.62754005 </threshold>
							<split pos="left">
								<feature> 116 </feature>
								<threshold> 0.765625 </threshold>
								<split pos="left">
									<feature> 80 </feature>
									<threshold> 0.001953125 </threshold>
									<split pos="left">
										<output> 1.569677472114563 </output>
									</split>
									<split pos="right">
										<output> 0.5398139953613281 </output>
									</split>
								</split>
								<split pos="right">
									<output> 1.1067107915878296 </output>
								</split>
							</split>
							<split pos="right">
								<output> 0.9590242505073547 </output>
							</split>
						</split>
					</split>
					<split pos="right">
						<output> -6.696413040161133 </output>
					</split>
				</split>
				<split pos="right">
					<output> 1.1257610321044922 </output>
				</split>
			</split>
			<split pos="right">
				<feature> 130 </feature>
				<threshold> 0.0859375 </threshold>
				<split pos="left">
					<output> -0.6354516744613647 </output>
				</split>
				<split pos="right">
					<output> -0.4461495578289032 </output>
				</split>
			</split>
		</split>
	</tree>
	<tree id="39" weight="0.1">
		<split>
			<feature> 131 </feature>
			<threshold> 0.17578125 </threshold>
			<split pos="left">
				<output> -0.5374184250831604 </output>
			</split>
			<split pos="right">
				<feature> 63 </feature>
				<threshold> 0.94921875 </threshold>
				<split pos="left">
					<feature> 130 </feature>
					<threshold> 0.21875 </threshold>
					<split pos="left">
						<feature> 74 </feature>
						<threshold> 0.04296875 </threshold>
						<split pos="left">
							<output> 1.1948533058166504 </output>
						</split>
						<split pos="right">
							<feature> 132 </feature>
							<threshold> 0.62890625 </threshold>
							<split pos="left">
								<feature> 13 </feature>
								<threshold> 0.87890625 </threshold>
								<split pos="left">
									<feature> 117 </feature>
									<threshold> 0.22265625 </threshold>
									<split pos="left">
										<output> 0.8616912961006165 </output>
									</split>
									<split pos="right">
										<feature> 154 </feature>
										<threshold> 0.36672613 </threshold>
										<split pos="left">
											<output> 0.9879446029663086 </output>
										</split>
										<split pos="right">
											<output> 0.5306795239448547 </output>
										</split>
									</split>
								</split>
								<split pos="right">
									<output> 1.6504006385803223 </output>
								</split>
							</split>
							<split pos="right">
								<output> 0.878184974193573 </output>
							</split>
						</split>
					</split>
					<split pos="right">
						<feature> 73 </feature>
						<threshold> 0.8671875 </threshold>
						<split pos="left">
							<output> -0.8173131346702576 </output>
						</split>
						<split pos="right">
							<output> 0.2271217256784439 </output>
						</split>
					</split>
				</split>
				<split pos="right">
					<output> 0.9303039312362671 </output>
				</split>
			</split>
		</split>
	</tree>
	<tree id="40" weight="0.1">
		<split>
			<feature> 131 </feature>
			<threshold> 0.17578125 </threshold>
			<split pos="left">
				<output> -0.5865173935890198 </output>
			</split>
			<split pos="right">
				<feature> 13 </feature>
				<threshold> 0.87890625 </threshold>
				<split pos="left">
					<feature> 63 </feature>
					<threshold> 0.94921875 </threshold>
					<split pos="left">
						<feature> 130 </feature>
						<threshold> 0.109375 </threshold>
						<split pos="left">
							<feature> 117 </feature>
							<threshold> 0.22265625 </threshold>
							<split pos="left">
								<output> 1.0050811767578125 </output>
							</split>
							<split pos="right">
								<feature> 62 </feature>
								<threshold> 0.0078125 </threshold>
								<split pos="left">
									<feature> 159 </feature>
									<threshold> 0.4609375 </threshold>
									<split pos="left">
										<output> 0.9379427433013916 </output>
									</split>
									<split pos="right">
										<feature> 48 </feature>
										<threshold> 0.7350002 </threshold>
										<split pos="left">
											<output> 1.5373198986053467 </output>
										</split>
										<split pos="right">
											<feature> 137 </feature>
											<threshold> 0.703125 </threshold>
											<split pos="left">
												<output> 1.541232943534851 </output>
											</split>
											<split pos="right">
												<output> -0.09027312695980072 </output>
											</split>
										</split>
									</split>
								</split>
								<split pos="right">
									<output> 0.7174021601676941 </output>
								</split>
							</split>
						</split>
						<split pos="right">
							<output> -0.24022559821605682 </output>
						</split>
					</split>
					<split pos="right">
						<output> 0.904911458492279 </output>
					</split>
				</split>
				<split pos="right">
					<output> 1.4169483184814453 </output>
				</split>
			</split>
		</split>
	</tree>
	<tree id="41" weight="0.1">
		<split>
			<feature> 142 </feature>
			<threshold> -1.2187476 </threshold>
			<split pos="left">
				<feature> 45 </feature>
				<threshold> 0.3611111 </threshold>
				<split pos="left">
					<output> 0.2411753088235855 </output>
				</split>
				<split pos="right">
					<feature> 159 </feature>
					<threshold> 0.4453125 </threshold>
					<split pos="left">
						<feature> 117 </feature>
						<threshold> 0.27734375 </threshold>
						<split pos="left">
							<output> 0.5691538453102112 </output>
						</split>
						<split pos="right">
							<feature> 80 </feature>
							<threshold> 0.001953125 </threshold>
							<split pos="left">
								<output> 1.5254979133605957 </output>
							</split>
							<split pos="right">
								<feature> 140 </feature>
								<threshold> 0.2501952 </threshold>
								<split pos="left">
									<output> -0.8026954531669617 </output>
								</split>
								<split pos="right">
									<output> 0.7454646825790405 </output>
								</split>
							</split>
						</split>
					</split>
					<split pos="right">
						<feature> 60 </feature>
						<threshold> 0.035326384 </threshold>
						<split pos="left">
							<feature> 131 </feature>
							<threshold> 0.0 </threshold>
							<split pos="left">
								<output> -0.6538373827934265 </output>
							</split>
							<split pos="right">
								<feature> 54 </feature>
								<threshold> 0.022480426 </threshold>
								<split pos="left">
									<output> 1.4174684286117554 </output>
								</split>
								<split pos="right">
									<output> 1.4405332803726196 </output>
								</split>
							</split>
						</split>
						<split pos="right">
							<output> 1.152880311012268 </output>
						</split>
					</split>
				</split>
			</split>
			<split pos="right">
				<output> -0.5983291864395142 </output>
			</split>
		</split>
	</tree>
	<tree id="42" weight="0.1">
		<split>
			<feature> 130 </feature>
			<threshold> 0.109375 </threshold>
			<split pos="left">
				<feature> 132 </feature>
				<threshold> 0.0703125 </threshold>
				<split pos="left">
					<output> -0.5419307947158813 </output>
				</split>
				<split pos="right">
					<feature> 13 </feature>
					<threshold> 0.87890625 </threshold>
					<split pos="left">
						<feature> 63 </feature>
						<threshold> 0.94921875 </threshold>
						<split pos="left">
							<feature> 131 </feature>
							<threshold> 0.07421875 </threshold>
							<split pos="left">
								<output> 1.5882052183151245 </output>
							</split>
							<split pos="right">
								<feature> 62 </feature>
								<threshold> 0.0078125 </threshold>
								<split pos="left">
									<feature> 159 </feature>
									<threshold> 0.4609375 </threshold>
									<split pos="left">
										<output> 0.856446385383606 </output>
									</split>
									<split pos="right">
										<feature> 126 </feature>
										<threshold> 0.75 </threshold>
										<split pos="left">
											<output> 1.3515183925628662 </output>
										</split>
										<split pos="right">
											<output> 1.358937382698059 </output>
										</split>
									</split>
								</split>
								<split pos="right">
									<output> 0.6286509037017822 </output>
								</split>
							</split>
						</split>
						<split pos="right">
							<output> 1.0499972105026245 </output>
						</split>
					</split>
					<split pos="right">
						<output> 1.4659028053283691 </output>
					</split>
				</split>
			</split>
			<split pos="right">
				<feature> 73 </feature>
				<threshold> 0.8671875 </threshold>
				<split pos="left">
					<output> -0.7721537947654724 </output>
				</split>
				<split pos="right">
					<output> 0.24876433610916138 </output>
				</split>
			</split>
		</split>
	</tree>
	<tree id="43" weight="0.1">
		<split>
			<feature> 142 </feature>
			<threshold> -1.2187476 </threshold>
			<split pos="left">
				<feature> 45 </feature>
				<threshold> 0.3611111 </threshold>
				<split pos="left">
					<output> 0.178938627243042 </output>
				</split>
				<split pos="right">
					<feature> 80 </feature>
					<threshold> 0.001953125 </threshold>
					<split pos="left">
						<output> 1.4066954851150513 </output>
					</split>
					<split pos="right">
						<feature> 159 </feature>
						<threshold> 0.4453125 </threshold>
						<split pos="left">
							<feature> 120 </feature>
							<threshold> 0.40625 </threshold>
							<split pos="left">
								<output> 0.7949985265731812 </output>
							</split>
							<split pos="right">
								<feature> 159 </feature>
								<threshold> 0.27734375 </threshold>
								<split pos="left">
									<output> 0.4811271131038666 </output>
								</split>
								<split pos="right">
									<output> 0.8701906204223633 </output>
								</split>
							</split>
						</split>
						<split pos="right">
							<feature> 60 </feature>
							<threshold> 0.035326384 </threshold>
							<split pos="left">
								<feature> 115 </feature>
								<threshold> 0.45703125 </threshold>
								<split pos="left">
									<output> 1.2919256687164307 </output>
								</split>
								<split pos="right">
									<output> -0.47480612993240356 </output>
								</split>
							</split>
							<split pos="right">
								<output> 1.0654919147491455 </output>
							</split>
						</split>
					</split>
				</split>
			</split>
			<split pos="right">
				<feature> 130 </feature>
				<threshold> 0.0859375 </threshold>
				<split pos="left">
					<output> -0.5779923796653748 </output>
				</split>
				<split pos="right">
					<output> -0.3689974546432495 </output>
				</split>
			</split>
		</split>
	</tree>
	<tree id="44" weight="0.1">
		<split>
			<feature> 130 </feature>
			<threshold> 0.08984375 </threshold>
			<split pos="left">
				<feature> 131 </feature>
				<threshold> 0.05859375 </threshold>
				<split pos="left">
					<output> -0.5597378015518188 </output>
				</split>
				<split pos="right">
					<feature> 4 </feature>
					<threshold> 0.8828125 </threshold>
					<split pos="left">
						<feature> 63 </feature>
						<threshold> 0.953125 </threshold>
						<split pos="left">
							<feature> 137 </feature>
							<threshold> 0.14453125 </threshold>
							<split pos="left">
								<output> 0.887523353099823 </output>
							</split>
							<split pos="right">
								<feature> 80 </feature>
								<threshold> 0.001953125 </threshold>
								<split pos="left">
									<output> 1.3962169885635376 </output>
								</split>
								<split pos="right">
									<feature> 132 </feature>
									<threshold> 0.62890625 </threshold>
									<split pos="left">
										<feature> 62 </feature>
										<threshold> 0.0078125 </threshold>
										<split pos="left">
											<output> 1.0428038835525513 </output>
										</split>
										<split pos="right">
											<output> 0.5761511921882629 </output>
										</split>
									</split>
									<split pos="right">
										<output> 0.8258677124977112 </output>
									</split>
								</split>
							</split>
						</split>
						<split pos="right">
							<output> 1.0213209390640259 </output>
						</split>
					</split>
					<split pos="right">
						<output> 1.355276346206665 </output>
					</split>
				</split>
			</split>
			<split pos="right">
				<feature> 102 </feature>
				<threshold> 0.26953125 </threshold>
				<split pos="left">
					<output> -1.0359935760498047 </output>
				</split>
				<split pos="right">
					<output> 0.06637626141309738 </output>
				</split>
			</split>
		</split>
	</tree>
	<tree id="45" weight="0.1">
		<split>
			<feature> 130 </feature>
			<threshold> 0.08984375 </threshold>
			<split pos="left">
				<feature> 141 </feature>
				<threshold> 0.45117235 </threshold>
				<split pos="left">
					<output> 0.8753494620323181 </output>
				</split>
				<split pos="right">
					<feature> 131 </feature>
					<threshold> 0.0625 </threshold>
					<split pos="left">
						<output> -0.6737814545631409 </output>
					</split>
					<split pos="right">
						<feature> 4 </feature>
						<threshold> 0.8828125 </threshold>
						<split pos="left">
							<feature> 63 </feature>
							<threshold> 0.953125 </threshold>
							<split pos="left">
								<feature> 80 </feature>
								<threshold> 0.001953125 </threshold>
								<split pos="left">
									<output> 1.337551236152649 </output>
								</split>
								<split pos="right">
									<feature> 62 </feature>
									<threshold> 0.0078125 </threshold>
									<split pos="left">
										<output> 1.0063742399215698 </output>
									</split>
									<split pos="right">
										<output> 0.43473508954048157 </output>
									</split>
								</split>
							</split>
							<split pos="right">
								<output> 1.0106388330459595 </output>
							</split>
						</split>
						<split pos="right">
							<output> 1.296191692352295 </output>
						</split>
					</split>
				</split>
			</split>
			<split pos="right">
				<feature> 47 </feature>
				<threshold> 0.9288889 </threshold>
				<split pos="left">
					<feature> 154 </feature>
					<threshold> 2.3978236 </threshold>
					<split pos="left">
						<output> 0.06275112181901932 </output>
					</split>
					<split pos="right">
						<output> -12.484095573425293 </output>
					</split>
				</split>
				<split pos="right">
					<output> -1.2240512371063232 </output>
				</split>
			</split>
		</split>
	</tree>
	<tree id="46" weight="0.1">
		<split>
			<feature> 130 </feature>
			<threshold> 0.07421875 </threshold>
			<split pos="left">
				<feature> 141 </feature>
				<threshold> 0.4593755 </threshold>
				<split pos="left">
					<output> 0.7572677135467529 </output>
				</split>
				<split pos="right">
					<feature> 131 </feature>
					<threshold> 0.0625 </threshold>
					<split pos="left">
						<output> -0.7067102193832397 </output>
					</split>
					<split pos="right">
						<feature> 4 </feature>
						<threshold> 0.8828125 </threshold>
						<split pos="left">
							<feature> 159 </feature>
							<threshold> 0.4609375 </threshold>
							<split pos="left">
								<output> 0.5009010434150696 </output>
							</split>
							<split pos="right">
								<feature> 126 </feature>
								<threshold> 0.765625 </threshold>
								<split pos="left">
									<output> 0.9299188256263733 </output>
								</split>
								<split pos="right">
									<output> 1.3413068056106567 </output>
								</split>
							</split>
						</split>
						<split pos="right">
							<output> 1.2384250164031982 </output>
						</split>
					</split>
				</split>
			</split>
			<split pos="right">
				<feature> 73 </feature>
				<threshold> 0.8671875 </threshold>
				<split pos="left">
					<feature> 130 </feature>
					<threshold> 0.91015625 </threshold>
					<split pos="left">
						<feature> 115 </feature>
						<threshold> 0.109375 </threshold>
						<split pos="left">
							<output> -4.009133338928223 </output>
						</split>
						<split pos="right">
							<output> -0.4570471942424774 </output>
						</split>
					</split>
					<split pos="right">
						<output> -8.908988952636719 </output>
					</split>
				</split>
				<split pos="right">
					<output> 0.23591482639312744 </output>
				</split>
			</split>
		</split>
	</tree>
	<tree id="47" weight="0.1">
		<split>
			<feature> 142 </feature>
			<threshold> -1.2057267 </threshold>
			<split pos="left">
				<feature> 48 </feature>
				<threshold> 0.8283339 </threshold>
				<split pos="left">
					<feature> 159 </feature>
					<threshold> 0.45703125 </threshold>
					<split pos="left">
						<feature> 117 </feature>
						<threshold> 0.27734375 </threshold>
						<split pos="left">
							<output> 0.6181796193122864 </output>
						</split>
						<split pos="right">
							<feature> 140 </feature>
							<threshold> 0.62754005 </threshold>
							<split pos="left">
								<feature> 145 </feature>
								<threshold> 0.013020834 </threshold>
								<split pos="left">
									<output> 0.3655160963535309 </output>
								</split>
								<split pos="right">
									<output> 1.0650125741958618 </output>
								</split>
							</split>
							<split pos="right">
								<output> 0.6166177988052368 </output>
							</split>
						</split>
					</split>
					<split pos="right">
						<feature> 85 </feature>
						<threshold> 0.013671875 </threshold>
						<split pos="left">
							<output> 1.2364544868469238 </output>
						</split>
						<split pos="right">
							<output> 0.6381891965866089 </output>
						</split>
					</split>
				</split>
				<split pos="right">
					<feature> 141 </feature>
					<threshold> 0.2501952 </threshold>
					<split pos="left">
						<output> -1.7695000171661377 </output>
					</split>
					<split pos="right">
						<output> 0.22601862251758575 </output>
					</split>
				</split>
			</split>
			<split pos="right">
				<feature> 130 </feature>
				<threshold> 0.69140625 </threshold>
				<split pos="left">
					<output> -0.5334740281105042 </output>
				</split>
				<split pos="right">
					<output> -0.36212921142578125 </output>
				</split>
			</split>
		</split>
	</tree>
	<tree id="48" weight="0.1">
		<split>
			<feature> 130 </feature>
			<threshold> 0.21875 </threshold>
			<split pos="left">
				<feature> 120 </feature>
				<threshold> 0.4921875 </threshold>
				<split pos="left">
					<output> 0.914833664894104 </output>
				</split>
				<split pos="right">
					<feature> 142 </feature>
					<threshold> -1.2057267 </threshold>
					<split pos="left">
						<feature> 46 </feature>
						<threshold> 0.81777775 </threshold>
						<split pos="left">
							<feature> 159 </feature>
							<threshold> 0.45703125 </threshold>
							<split pos="left">
								<feature> 130 </feature>
								<threshold> 0.17578125 </threshold>
								<split pos="left">
									<output> 0.6716492772102356 </output>
								</split>
								<split pos="right">
									<output> 0.7087298631668091 </output>
								</split>
							</split>
							<split pos="right">
								<output> 1.1001532077789307 </output>
							</split>
						</split>
						<split pos="right">
							<output> -0.06206214427947998 </output>
						</split>
					</split>
					<split pos="right">
						<output> -0.6243318915367126 </output>
					</split>
				</split>
			</split>
			<split pos="right">
				<feature> 159 </feature>
				<threshold> 0.26953125 </threshold>
				<split pos="left">
					<feature> 131 </feature>
					<threshold> 0.22265625 </threshold>
					<split pos="left">
						<output> -39.42083740234375 </output>
					</split>
					<split pos="right">
						<feature> 131 </feature>
						<threshold> 0.96484375 </threshold>
						<split pos="left">
							<output> -0.8561990261077881 </output>
						</split>
						<split pos="right">
							<output> 0.2304052859544754 </output>
						</split>
					</split>
				</split>
				<split pos="right">
					<output> 0.27982133626937866 </output>
				</split>
			</split>
		</split>
	</tree>
	<tree id="49" weight="0.1">
		<split>
			<feature> 130 </feature>
			<threshold> 0.07421875 </threshold>
			<split pos="left">
				<feature> 141 </feature>
				<threshold> 0.4593755 </threshold>
				<split pos="left">
					<output> 0.6433359980583191 </output>
				</split>
				<split pos="right">
					<feature> 142 </feature>
					<threshold> -1.2057267 </threshold>
					<split pos="left">
						<feature> 130 </feature>
						<threshold> 0.0703125 </threshold>
						<split pos="left">
							<feature> 159 </feature>
							<threshold> 0.45703125 </threshold>
							<split pos="left">
								<output> 0.48545223474502563 </output>
							</split>
							<split pos="right">
								<output> 0.9072773456573486 </output>
							</split>
						</split>
						<split pos="right">
							<output> 1.234845519065857 </output>
						</split>
					</split>
					<split pos="right">
						<output> -0.667193591594696 </output>
					</split>
				</split>
			</split>
			<split pos="right">
				<feature> 157 </feature>
				<threshold> 76.0 </threshold>
				<split pos="left">
					<feature> 150 </feature>
					<threshold> 0.4 </threshold>
					<split pos="left">
						<feature> 115 </feature>
						<threshold> 0.0 </threshold>
						<split pos="left">
							<output> -8.125996589660645 </output>
						</split>
						<split pos="right">
							<feature> 101 </feature>
							<threshold> 0.61328125 </threshold>
							<split pos="left">
								<output> -1.0193779468536377 </output>
							</split>
							<split pos="right">
								<output> 0.25801482796669006 </output>
							</split>
						</split>
					</split>
					<split pos="right">
						<output> 0.14015941321849823 </output>
					</split>
				</split>
				<split pos="right">
					<output> 0.5282354354858398 </output>
				</split>
			</split>
		</split>
	</tree>
	<tree id="50" weight="0.1">
		<split>
			<feature> 120 </feature>
			<threshold> 0.4921875 </threshold>
			<split pos="left">
				<output> 0.46166297793388367 </output>
			</split>
			<split pos="right">
				<feature> 132 </feature>
				<threshold> 0.984375 </threshold>
				<split pos="left">
					<feature> 116 </feature>
					<threshold> 0.078125 </threshold>
					<split pos="left">
						<output> 1.0220409631729126 </output>
					</split>
					<split pos="right">
						<feature> 140 </feature>
						<threshold> 0.31992197 </threshold>
						<split pos="left">
							<output> -0.4323611259460449 </output>
						</split>
						<split pos="right">
							<feature> 132 </feature>
							<threshold> 0.93359375 </threshold>
							<split pos="left">
								<feature> 130 </feature>
								<threshold> 0.88671875 </threshold>
								<split pos="left">
									<feature> 132 </feature>
									<threshold> 0.80859375 </threshold>
									<split pos="left">
										<feature> 130 </feature>
										<threshold> 0.796875 </threshold>
										<split pos="left">
											<feature> 132 </feature>
											<threshold> 0.0234375 </threshold>
											<split pos="left">
												<output> -0.5783594250679016 </output>
											</split>
											<split pos="right">
												<output> 0.2914882302284241 </output>
											</split>
										</split>
										<split pos="right">
											<output> -5.031972408294678 </output>
										</split>
									</split>
									<split pos="right">
										<output> 0.4265630841255188 </output>
									</split>
								</split>
								<split pos="right">
									<output> -2.6713573932647705 </output>
								</split>
							</split>
							<split pos="right">
								<output> 0.721815288066864 </output>
							</split>
						</split>
					</split>
				</split>
				<split pos="right">
					<output> -0.9472315311431885 </output>
				</split>
			</split>
		</split>
	</tree>
	<tree id="51" weight="0.1">
		<split>
			<feature> 119 </feature>
			<threshold> 0.42578125 </threshold>
			<split pos="left">
				<feature> 121 </feature>
				<threshold> 0.64546865 </threshold>
				<split pos="left">
					<output> 0.292656809091568 </output>
				</split>
				<split pos="right">
					<output> 1.5206830501556396 </output>
				</split>
			</split>
			<split pos="right">
				<feature> 130 </feature>
				<threshold> 0.07421875 </threshold>
				<split pos="left">
					<feature> 137 </feature>
					<threshold> 0.14453125 </threshold>
					<split pos="left">
						<output> 0.9589318633079529 </output>
					</split>
					<split pos="right">
						<feature> 138 </feature>
						<threshold> 0.1015625 </threshold>
						<split pos="left">
							<output> -3.4758410453796387 </output>
						</split>
						<split pos="right">
							<feature> 140 </feature>
							<threshold> 0.4757818 </threshold>
							<split pos="left">
								<output> 1.0535154342651367 </output>
							</split>
							<split pos="right">
								<feature> 130 </feature>
								<threshold> 0.0703125 </threshold>
								<split pos="left">
									<feature> 132 </feature>
									<threshold> 0.0234375 </threshold>
									<split pos="left">
										<output> -0.6739633083343506 </output>
									</split>
									<split pos="right">
										<output> 0.36605745553970337 </output>
									</split>
								</split>
								<split pos="right">
									<output> 1.1816576719284058 </output>
								</split>
							</split>
						</split>
					</split>
				</split>
				<split pos="right">
					<feature> 73 </feature>
					<threshold> 0.86328125 </threshold>
					<split pos="left">
						<output> -0.5273162126541138 </output>
					</split>
					<split pos="right">
						<output> 0.236866295337677 </output>
					</split>
				</split>
			</split>
		</split>
	</tree>
	<tree id="52" weight="0.1">
		<split>
			<feature> 119 </feature>
			<threshold> 0.44140625 </threshold>
			<split pos="left">
				<feature> 121 </feature>
				<threshold> 0.64546865 </threshold>
				<split pos="left">
					<output> 0.31080374121665955 </output>
				</split>
				<split pos="right">
					<feature> 61 </feature>
					<threshold> 0.953125 </threshold>
					<split pos="left">
						<output> -1.0930230617523193 </output>
					</split>
					<split pos="right">
						<output> 1.4190388917922974 </output>
					</split>
				</split>
			</split>
			<split pos="right">
				<feature> 130 </feature>
				<threshold> 0.07421875 </threshold>
				<split pos="left">
					<feature> 137 </feature>
					<threshold> 0.06640625 </threshold>
					<split pos="left">
						<output> 1.1043133735656738 </output>
					</split>
					<split pos="right">
						<feature> 140 </feature>
						<threshold> 0.30351567 </threshold>
						<split pos="left">
							<output> 1.0991400480270386 </output>
						</split>
						<split pos="right">
							<feature> 142 </feature>
							<threshold> -1.2187476 </threshold>
							<split pos="left">
								<feature> 46 </feature>
								<threshold> 0.81777775 </threshold>
								<split pos="left">
									<output> 0.632239818572998 </output>
								</split>
								<split pos="right">
									<output> -0.14842163026332855 </output>
								</split>
							</split>
							<split pos="right">
								<output> -0.5998555421829224 </output>
							</split>
						</split>
					</split>
				</split>
				<split pos="right">
					<feature> 73 </feature>
					<threshold> 0.86328125 </threshold>
					<split pos="left">
						<output> -0.47212138772010803 </output>
					</split>
					<split pos="right">
						<output> 0.217188760638237 </output>
					</split>
				</split>
			</split>
		</split>
	</tree>
	<tree id="53" weight="0.1">
		<split>
			<feature> 119 </feature>
			<threshold> 0.44140625 </threshold>
			<split pos="left">
				<feature> 121 </feature>
				<threshold> 0.64546865 </threshold>
				<split pos="left">
					<output> 0.24192194640636444 </output>
				</split>
				<split pos="right">
					<feature> 154 </feature>
					<threshold> 0.43725035 </threshold>
					<split pos="left">
						<output> 1.3443082571029663 </output>
					</split>
					<split pos="right">
						<output> -1.0932656526565552 </output>
					</split>
				</split>
			</split>
			<split pos="right">
				<feature> 132 </feature>
				<threshold> 0.984375 </threshold>
				<split pos="left">
					<feature> 132 </feature>
					<threshold> 0.9375 </threshold>
					<split pos="left">
						<feature> 130 </feature>
						<threshold> 0.88671875 </threshold>
						<split pos="left">
							<feature> 132 </feature>
							<threshold> 0.83203125 </threshold>
							<split pos="left">
								<feature> 130 </feature>
								<threshold> 0.30078125 </threshold>
								<split pos="left">
									<feature> 140 </feature>
									<threshold> 0.30351567 </threshold>
									<split pos="left">
										<output> 0.6128804087638855 </output>
									</split>
									<split pos="right">
										<output> -0.06186570227146149 </output>
									</split>
								</split>
								<split pos="right">
									<output> -0.30060678720474243 </output>
								</split>
							</split>
							<split pos="right">
								<output> 0.3869699537754059 </output>
							</split>
						</split>
						<split pos="right">
							<output> -1.422311782836914 </output>
						</split>
					</split>
					<split pos="right">
						<output> 0.41207435727119446 </output>
					</split>
				</split>
				<split pos="right">
					<output> -0.6198802590370178 </output>
				</split>
			</split>
		</split>
	</tree>
	<tree id="54" weight="0.1">
		<split>
			<feature> 119 </feature>
			<threshold> 0.44140625 </threshold>
			<split pos="left">
				<feature> 121 </feature>
				<threshold> 0.64546865 </threshold>
				<split pos="left">
					<output> 0.20280145108699799 </output>
				</split>
				<split pos="right">
					<feature> 46 </feature>
					<threshold> 0.72 </threshold>
					<split pos="left">
						<output> 1.2996747493743896 </output>
					</split>
					<split pos="right">
						<output> -1.0870367288589478 </output>
					</split>
				</split>
			</split>
			<split pos="right">
				<feature> 116 </feature>
				<threshold> 0.078125 </threshold>
				<split pos="left">
					<output> 1.0226571559906006 </output>
				</split>
				<split pos="right">
					<feature> 116 </feature>
					<threshold> 0.109375 </threshold>
					<split pos="left">
						<output> -32.24359893798828 </output>
					</split>
					<split pos="right">
						<feature> 120 </feature>
						<threshold> 0.51953125 </threshold>
						<split pos="left">
